{"version": "0.5.2", "metadata": {"date": {"year": 2024, "month": 1, "day": 7, "hour": 13, "minute": 43, "second": 52}, "loudness": -17.637100219726562, "gain": 0.7303038844227805, "name": null, "modeled_by": null, "gear_type": null, "gear_make": null, "gear_model": null, "tone_type": null}, "architecture": "WaveNet", "config": {"layers": [{"input_size": 1, "condition_size": 1, "head_size": 12, "channels": 24, "kernel_size": 3, "dilations": [1, 2, 4, 8, 16, 32, 64, 128, 256, 512, 1024], "activation": "Tanh", "gated": false, "head_bias": false}, {"input_size": 24, "condition_size": 1, "head_size": 1, "channels": 12, "kernel_size": 3, "dilations": [1, 2, 4, 8, 16, 32, 64, 128, 256, 512, 1024], "activation": "Tanh", "gated": false, "head_bias": true}], "head": null, "head_scale": 0.02}, "weights": [-0.0004968762514181435, 0.5138882994651794, -0.9234374761581421, -0.6749359965324402, -0.2990971803665161, 0.3102661371231079, -0.003476703306660056, 0.882381021976471, -0.000999031588435173, -0.0001563641126267612, 0.00174376938957721, -0.0017813403392210603, -0.9952143430709839, -0.7050262093544006, -0.22061724960803986, 0.002298652892932296, 0.08589431643486023, 0.6508986949920654, -0.5940517783164978, -0.25527775287628174, -0.002281129127368331, 0.7889299988746643, -0.23250359296798706, 0.7260822653770447, -0.11602193862199783, 0.056598957628011703, 0.031972769647836685, -0.045010656118392944, -0.28975367546081543, -0.0056565143167972565, -0.10293741524219513, 0.3277696669101715, -0.0934387668967247, -0.11322219669818878, 0.1380101889371872, -0.12998509407043457, -0.14082381129264832, 0.309881329536438, 0.019190466031432152, 0.13287539780139923, -0.19761666655540466, -0.021860342472791672, -0.053814005106687546, 0.025194890797138214, -0.12259291857481003, -0.0034817224368453026, -0.14861488342285156, 0.08700191229581833, -0.05940551310777664, 0.06980545073747635, 0.05558740720152855, 0.2367786169052124, -0.09068828821182251, 0.06252890825271606, -0.010242979042232037, -0.05775446444749832, -0.0643911138176918, -0.02768959477543831, 0.13917560875415802, -0.028551869094371796, -0.0021851530764251947, 0.27250778675079346, -0.08581564575433731, -0.024712180718779564, 0.2856791019439697, -0.03569794073700905, -0.07241345942020416, 0.2310442179441452, 0.03562573716044426, 0.1670226901769638, -0.21036991477012634, -0.01859632506966591, 0.11541230976581573, -0.11198079586029053, 0.13232897222042084, 0.16513293981552124, -0.19529780745506287, -0.08013497292995453, -0.049033161252737045, 0.14749790728092194, -0.13035839796066284, 0.030055204406380653, 0.29361826181411743, -0.1529918611049652, 0.10559618473052979, -0.15687425434589386, -0.012145396322011948, 0.0035732330288738012, -0.17681452631950378, -0.05164969712495804, -0.039176493883132935, 0.2651413381099701, 0.03714188188314438, 0.10246533900499344, -0.337647020816803, -0.057222433388233185, 0.11167123913764954, 0.14407315850257874, 0.028024816885590553, -0.04087664932012558, 0.025203008204698563, 0.1316448450088501, -0.07219057530164719, 0.06352845579385757, -0.15968601405620575, -0.02512030489742756, 0.00020346729434095323, -0.1401490718126297, -0.03840155526995659, 0.09877816587686539, -0.10559757053852081, 0.10793997347354889, -0.14696097373962402, 0.17152895033359528, 0.048427898436784744, -0.03125371038913727, -0.05071614682674408, 0.026859721168875694, -0.0734122171998024, 0.0765971913933754, 0.023866841569542885, 0.023760946467518806, -0.06742042303085327, 0.11042487621307373, -0.19014333188533783, -0.04770544916391373, -0.0867299810051918, -0.07002002745866776, -0.10018298774957657, -0.15870919823646545, 0.030440662056207657, 0.004600745625793934, -0.09690028429031372, 0.08617044240236282, 0.03728729858994484, -0.0363219790160656, 0.09186223149299622, -0.06110440567135811, -0.010078181512653828, 0.15506309270858765, 0.053058475255966187, 0.129119411110878, 0.09744236618280411, 0.02197165973484516, -0.07463470101356506, -0.13866682350635529, 0.13110938668251038, 0.023959387093782425, -0.14614327251911163, -0.03817559406161308, -0.13359284400939941, -0.010208246298134327, -0.07392064481973648, 0.029848219826817513, 0.14226549863815308, -0.17333558201789856, 0.08372421562671661, -0.21302668750286102, -0.07731656730175018, -0.025818321853876114, -0.11280634999275208, 0.025450127199292183, -0.1452282965183258, -0.023637160658836365, -0.08842965960502625, 0.024396779015660286, -0.14274528622627258, 0.09377855807542801, -0.12710072100162506, 0.055785562843084335, 0.28194528818130493, -0.09936562180519104, 0.18897897005081177, -0.07723615318536758, -0.05675318092107773, -0.012301169335842133, 0.10640616714954376, -0.004093274939805269, 0.008754181675612926, 0.022746538743376732, 0.060608211904764175, -0.10599692910909653, 0.2042013704776764, -0.01841237023472786, 0.13483157753944397, -0.08234988152980804, -0.020320413634181023, -0.007729594595730305, 0.0394335612654686, 0.014491529203951359, 0.1803015172481537, -0.037137094885110855, -0.08106318861246109, 0.07199899107217789, 0.05671736225485802, -0.08335748314857483, -0.02577233873307705, -0.07843375951051712, -0.11628595739603043, 0.0009613530128262937, 0.02067919261753559, 0.05378013849258423, -0.1304548680782318, 0.03770607337355614, -0.019336003810167313, -0.004268986638635397, 0.07607900351285934, 0.14962749183177948, -0.042573653161525726, 0.13460089266300201, 0.04900991544127464, -0.1037023589015007, 0.13428659737110138, 0.07249453663825989, 0.13958093523979187, 0.056549739092588425, -0.13495604693889618, 0.015294119715690613, -0.027837859466671944, -0.1456698626279831, 0.0771687924861908, -0.0017188586061820388, 0.09260722249746323, -0.08079700917005539, 0.017533615231513977, 0.11072411388158798, -0.16336485743522644, 0.0878550186753273, -0.002394145354628563, 0.024031061679124832, -0.08673711866140366, 0.04811808466911316, 0.10066817700862885, -0.012691527605056763, 0.1248122975230217, -0.15522322058677673, 0.18026202917099, -0.13215000927448273, 0.03588283807039261, -0.08370588719844818, 0.00798759888857603, 0.023691684007644653, -0.049886301159858704, -0.11374218761920929, 0.16035257279872894, -0.08224451541900635, 0.1926109343767166, -0.20555293560028076, -0.03712846711277962, 0.08839394897222519, -0.16640837490558624, -0.020588025450706482, 0.2177574187517166, -0.1264382153749466, -0.09232112765312195, -0.16770575940608978, -0.029495634138584137, 0.0697622075676918, 0.08728337287902832, -0.05596445873379707, -0.010652354918420315, -0.03871815279126167, 0.16984452307224274, 0.12934744358062744, 0.017390495166182518, -0.08009777218103409, -0.05399394780397415, -0.07451452314853668, 0.1593024581670761, 0.057030633091926575, -0.03638350963592529, -0.11147526651620865, -0.14292189478874207, 0.07835965603590012, -0.04987542703747749, 0.009722337126731873, 0.20868539810180664, -0.18514737486839294, -0.0534835159778595, 0.14376498758792877, -0.10033540427684784, -0.11454211175441742, 0.029013274237513542, 0.006396700162440538, 0.0005261157639324665, -0.03854202851653099, -0.053217217326164246, -0.05065709725022316, -0.14788801968097687, 0.08360589295625687, -0.0520123727619648, -0.06973253190517426, 0.14111176133155823, 0.032398954033851624, 0.08232519030570984, -0.17724360525608063, 0.04535835236310959, 0.0358487069606781, -0.03976205363869667, -0.059192828834056854, -0.10823740810155869, 0.10577070713043213, 0.010716027580201626, -0.0797780454158783, 0.1294778734445572, -0.04955139011144638, 0.14992456138134003, -0.03526327386498451, 0.03694937750697136, -0.12294898927211761, 0.008195859380066395, 0.01810651831328869, 0.10960476100444794, -0.004120043944567442, 0.14543697237968445, 0.09937142580747604, 0.02440321072936058, 0.018777118995785713, 0.019679222255945206, -0.086179219186306, -0.014654169790446758, -0.010587787255644798, -0.18245157599449158, -0.011719203554093838, 0.06895485520362854, 0.029240107163786888, 0.06235653534531593, 0.022794388234615326, 0.12645862996578217, -0.056765973567962646, -0.03305985778570175, -0.1227264478802681, 0.11509580910205841, 0.1026470735669136, 0.011188661679625511, 0.0691429078578949, 0.07352122664451599, 0.09446103870868683, 0.11082707345485687, 0.03175550326704979, -0.00015511686797253788, -0.054834552109241486, 0.09104658663272858, 0.0008709128596819937, -0.057058148086071014, 0.11056358367204666, 0.05356211960315704, 0.12912556529045105, -0.10333987325429916, -0.06061937287449837, -0.06607265025377274, 0.06710176914930344, -0.11117195338010788, 0.025826791301369667, 0.0128029715269804, -0.022927621379494667, -0.04363956302404404, 0.06698273122310638, 0.009713379666209221, 0.04376743733882904, -0.06643550097942352, -0.03740278631448746, -0.08512219041585922, 0.11691994220018387, 0.15243282914161682, 0.12912718951702118, 0.06962800025939941, -0.19437730312347412, -0.09999246895313263, -0.028811495751142502, -0.15136878192424774, 0.0757618173956871, -0.1441517472267151, -0.022152520716190338, -0.11091867089271545, -0.039699625223875046, 0.18893548846244812, 0.11919070780277252, 0.08094961941242218, 0.02100827731192112, 0.11340530961751938, -0.0043698810040950775, 0.14241962134838104, 0.12634876370429993, -0.06341193616390228, 0.022218914702534676, -0.015307249501347542, 0.007882521487772465, 0.03757178783416748, -0.027965566143393517, 0.07547210901975632, -0.1118430495262146, 0.015271121636033058, -0.004884796217083931, -0.17260560393333435, 0.16068324446678162, 0.1492350995540619, -0.09026705473661423, 0.018796805292367935, 0.0212442334741354, 0.14699338376522064, -0.08491718769073486, 0.0168392825871706, 0.0970655307173729, 0.12188700586557388, -0.150014266371727, 0.1967371255159378, 0.009230273775756359, -0.03561034053564072, 0.09347055852413177, -0.02021077647805214, -0.09674669802188873, 0.12683837115764618, -0.07574266940355301, -0.03794311359524727, -0.028060927987098694, -0.033082593232393265, 0.008788141421973705, -0.01465645618736744, 0.19763658940792084, 0.06652990728616714, -0.15680737793445587, 0.08635123819112778, 0.11974911391735077, -0.022822875529527664, -0.02416309155523777, 0.04583805799484253, -0.1639721393585205, 0.03620785474777222, 0.06625884026288986, 0.009134330786764622, 0.07246502488851547, 0.03368490934371948, 0.07848847657442093, -0.16775783896446228, -0.1041974425315857, 0.10812695324420929, -0.17183715105056763, 0.11960317939519882, -0.19001434743404388, -0.03218885511159897, -0.04453691467642784, -0.09704508632421494, 0.16917532682418823, -0.11527332663536072, 0.16015270352363586, -0.05106782540678978, -0.026345515623688698, 0.08820778876543045, -0.18729059398174286, 0.16890282928943634, -0.012162385508418083, 0.21278639137744904, -0.0021276192273944616, 0.003805530723184347, 0.0158823411911726, -0.002470421837642789, 0.10875187069177628, -0.006095726974308491, 0.1954951286315918, -0.06375554949045181, -0.11377507448196411, -0.21412453055381775, -0.15401579439640045, 0.09949947148561478, -0.1688210517168045, -0.03812110796570778, -0.012614166364073753, -0.31146174669265747, -0.07842034846544266, 0.12995176017284393, 0.328974187374115, 0.10421242564916611, -0.09739886224269867, 0.05944141000509262, -0.03381059691309929, -0.00584555184468627, 0.2904539406299591, -0.009845041669905186, -0.008334353566169739, -0.16286601126194, -0.031680501997470856, -0.06507676839828491, 0.18729038536548615, 0.0122097572311759, 0.04498288780450821, -0.08087951689958572, -0.03674517199397087, -0.054351117461919785, -0.12328046560287476, -0.024935830384492874, 0.04414490982890129, -0.1790459156036377, -0.141323521733284, 0.16203071177005768, -0.246796116232872, -0.1535150408744812, 0.0029290001839399338, -0.1121075302362442, 0.06784181296825409, -0.029070764780044556, 0.04840802401304245, -0.013670106418430805, -0.08187800645828247, 0.321079820394516, -0.015219749882817268, -0.03142442926764488, 0.27897870540618896, 0.018235094845294952, -0.029879255220294, -0.26626548171043396, 0.020509224385023117, 0.0354163758456707, -0.26130053400993347, -0.01289408840239048, 0.11848245561122894, 0.0700317844748497, 0.0637979805469513, 0.07062853127717972, 0.2226807326078415, 0.09272465109825134, -0.09314814954996109, -0.17497727274894714, -0.11953157931566238, 0.022522373124957085, 0.17291051149368286, 0.1639811247587204, -0.09729612618684769, -0.01587165892124176, -0.02851976454257965, 0.1370827853679657, 0.2918391227722168, -0.21654655039310455, -0.10659957677125931, -0.26608604192733765, 0.13050517439842224, -0.016072778031229973, -0.249026358127594, 0.08979003131389618, 0.038492828607559204, -0.2363828718662262, 0.15722958743572235, -0.014652340672910213, 0.1124940738081932, -0.11657686531543732, 0.08202743530273438, -0.13190922141075134, 0.04277626797556877, -0.17914779484272003, 0.289411723613739, -0.2438804656267166, -0.12952804565429688, 0.07008878141641617, -0.027982620522379875, -0.059292834252119064, 0.12300056964159012, -0.08489297330379486, -0.016619987785816193, 0.0521397665143013, 0.04901294782757759, -0.1250874549150467, -0.060076531022787094, 0.09428408741950989, 0.12150035053491592, -0.24938468635082245, 0.24426771700382233, -0.009320728480815887, -0.19663454592227936, 0.22423399984836578, 0.07379652559757233, -0.07767895609140396, 0.1955440789461136, -0.026026055216789246, -0.0031623966060578823, 0.004132796544581652, 0.163514643907547, 0.13209488987922668, -0.23428769409656525, 0.041045743972063065, 0.28858834505081177, -0.164564311504364, -0.11346964538097382, -0.2780601680278778, 0.16640031337738037, 0.00905146636068821, -0.2367209643125534, 0.14807192981243134, 0.05183301120996475, 0.1768573671579361, 0.051233138889074326, -0.01447948906570673, 0.06880136579275131, -0.23815931379795074, 0.09372169524431229, -0.125139519572258, 0.19030600786209106, -0.08867398649454117, 0.2806384265422821, -0.02036396786570549, 0.09002441167831421, -0.014202569611370564, 0.06352970749139786, 0.12085627019405365, 0.34959182143211365, 0.04875887930393219, -0.11955295503139496, -0.1853746473789215, -0.16198429465293884, 0.0012121524196118116, -0.250805526971817, -0.11297594010829926, -0.027951577678322792, -0.13059420883655548, -0.1418563723564148, 0.11654147505760193, 0.3249351382255554, 0.14409148693084717, -0.06301762908697128, -0.01267621573060751, -0.05216541886329651, -0.0634140744805336, 0.35458725690841675, 0.13130085170269012, -0.17816339433193207, -0.19340984523296356, -0.14720182120800018, 0.10432595759630203, 0.10982509702444077, -0.05983185023069382, -0.07718493789434433, -0.03497788682579994, -0.007779658306390047, 0.09686814993619919, -0.12904837727546692, -0.047220099717378616, -0.047711167484521866, -0.29222142696380615, -0.21570463478565216, -0.027856430038809776, -0.1907845288515091, -0.17170609533786774, 0.08106818050146103, -0.18689532577991486, -0.07823260873556137, 0.0005462575354613364, 0.18219275772571564, -0.0189669132232666, 0.05507170781493187, 0.13834139704704285, 0.06856618076562881, -0.0003028647624887526, 0.1904173344373703, 0.198333740234375, -0.14826436340808868, -0.33897915482521057, -0.15250028669834137, 0.08538122475147247, -0.11811017245054245, -0.14605170488357544, 0.11581568419933319, 0.05956345796585083, -0.004220951348543167, 0.004913631360977888, 0.15132705867290497, 0.11618747562170029, 0.04839826747775078, -0.2387339025735855, 0.011297065764665604, 0.04984094202518463, 0.3362385630607605, -0.011153512634336948, -0.07982569932937622, -0.1499386578798294, -0.14230500161647797, -0.25571632385253906, 0.18244557082653046, -0.03927016258239746, 0.004175709094852209, -0.011688732542097569, -0.008272422477602959, 0.09713736176490784, -0.16709865629673004, 0.011694904416799545, -0.012295497581362724, -0.038892071694135666, 0.10024169087409973, -0.03030986897647381, -0.007573944516479969, 0.03957706317305565, 0.04932086914777756, -0.03564009815454483, -0.1113458201289177, -0.010366132482886314, 0.1998802125453949, -0.016324128955602646, -0.1067611500620842, 0.16087134182453156, -0.04804598167538643, 0.00391340721398592, 0.1731579601764679, 0.05379302054643631, 0.1675163060426712, -0.08397991955280304, 0.0740426778793335, -0.05094810575246811, -0.025939306244254112, -0.03439292311668396, -0.036148250102996826, -0.14479732513427734, 0.10166853666305542, -0.01864653453230858, -0.14628587663173676, -0.07844817638397217, -0.1137668788433075, 0.020481564104557037, -0.0128730284050107, -0.006107532884925604, 0.02366238459944725, -0.017237480729818344, 0.07202047109603882, 0.18548958003520966, -0.10001703351736069, 0.0010132055031135678, 0.018148453906178474, -0.09362871944904327, 0.03181205689907074, 0.022783394902944565, -0.06837315112352371, 0.06820859014987946, -0.15313948690891266, -0.003785116132348776, 0.08203823119401932, 0.09444834291934967, 0.11589910835027695, 0.0393221341073513, 0.18811474740505219, -0.04119083285331726, -0.0818931832909584, -0.06063542515039444, -0.06407184898853302, -0.10469258576631546, 0.09550818800926208, 0.06866665184497833, -0.027344491332769394, 0.08406331390142441, 0.15635721385478973, 0.07262597233057022, -0.12443236261606216, -0.1340288668870926, 0.10438448935747147, -0.022216690704226494, 0.13143153488636017, -0.04653292894363403, 0.16555355489253998, 0.13527502119541168, -0.11197662353515625, 0.003471013158559799, 0.20132872462272644, -0.199918732047081, -0.12894681096076965, -0.08788150548934937, 0.22794003784656525, -0.09274819493293762, 0.20058634877204895, 0.00965177547186613, -0.15137973427772522, -0.1520395576953888, 0.24011047184467316, -0.08254531025886536, -0.024304646998643875, -0.06819874048233032, -0.17819713056087494, -0.10642232745885849, 0.07097873836755753, 0.17920950055122375, 0.08679665625095367, 0.1608877331018448, -0.14456245303153992, 0.12000690400600433, -0.22144457697868347, -0.034181900322437286, 0.20113921165466309, -0.12355290353298187, 0.07395381480455399, 0.05988731235265732, -0.1889544129371643, 0.017105812206864357, -0.00469825929030776, -0.14657746255397797, 0.02271048165857792, -0.023400938138365746, 0.14102253317832947, 0.057254113256931305, -0.08401201665401459, 0.09916169941425323, -0.11318010091781616, -0.19808009266853333, 0.06028778478503227, 0.04687018319964409, 0.10231161117553711, -0.08865726739168167, 0.0014300455804914236, 0.20488741993904114, -0.23275606334209442, -0.0481765978038311, -0.04120991751551628, 0.11338948458433151, -0.13652025163173676, -0.10535846650600433, 0.1512773483991623, -0.005215599667280912, 0.06815344095230103, -0.1312396079301834, -0.149053156375885, -0.10600577294826508, 0.18886660039424896, -0.05555667728185654, 0.07135813683271408, -0.14199534058570862, 0.04727117717266083, 0.10508596152067184, 0.05793102830648422, 0.07357805222272873, -0.017703041434288025, -0.11108975857496262, -0.009533868171274662, 0.01454384345561266, -0.13619601726531982, 0.030948428437113762, 0.014059973880648613, -0.021836787462234497, -0.026150420308113098, 0.0040621948428452015, 0.055708128958940506, -0.11792554706335068, 0.07906413823366165, -0.07038149982690811, -0.05773993581533432, -0.05573691427707672, 0.1225728988647461, -0.1012428030371666, -0.001972444588318467, -0.15204010903835297, 0.0812889114022255, 0.05942421033978462, 0.0722014307975769, -0.07670152932405472, 0.02241089753806591, -0.1410847306251526, 0.027304507791996002, 0.043840985745191574, 0.02935395948588848, -0.03828706219792366, -0.04594557732343674, -0.040347713977098465, -0.09382420778274536, 0.01626170240342617, -0.14775851368904114, 0.07903442531824112, -0.10127724707126617, -0.024168124422430992, 0.17324192821979523, 0.0363352932035923, 0.09235749393701553, 0.1094195619225502, -0.06224072724580765, 0.08196642994880676, -0.060519300401210785, -0.030816279351711273, 0.1182394027709961, 0.025517430156469345, -0.0067181964404881, -0.20965935289859772, 0.008826389908790588, 0.0055726212449371815, -0.07706233114004135, 0.11008142679929733, 0.09659922122955322, 0.004892044700682163, -0.01824537292122841, -0.06316988915205002, -0.017053373157978058, -0.08708176761865616, 0.1199103370308876, -0.035148121416568756, 0.052603427320718765, 0.05004765838384628, -0.0014859868679195642, -0.05248846858739853, 0.08304499834775925, -0.19665445387363434, 0.0646013393998146, 0.12843474745750427, 0.12777908146381378, -0.007246822118759155, -0.04325031861662865, -0.14831648766994476, 0.032474029809236526, -0.06007876619696617, -0.010020446963608265, 0.13359153270721436, 0.019620243459939957, 0.05653616413474083, 0.04622506722807884, 0.18101219832897186, 0.03613196313381195, -0.14187730848789215, -0.07687872648239136, -0.15262310206890106, -0.1052524521946907, 0.16009609401226044, 0.08616327494382858, 0.014115636236965656, 0.052950624376535416, 0.06049954146146774, 0.04008160158991814, -0.059329524636268616, -0.01518945675343275, 0.050559379160404205, 0.04688980057835579, -0.04863284155726433, -0.15486085414886475, -0.15688307583332062, -0.01637214422225952, 0.11759016662836075, -0.2060990184545517, 0.0005194675177335739, -0.051152538508176804, -0.010009211488068104, -0.008909596130251884, 0.15290525555610657, -0.20939649641513824, -0.16177166998386383, -0.04310176521539688, -0.04411277920007706, 0.016264352947473526, 0.04858227074146271, -0.011716727167367935, 0.1362386792898178, -0.15197649598121643, 0.12542623281478882, -0.0315864235162735, -0.0059344833716750145, -0.07742198556661606, -0.0921827033162117, 0.020240437239408493, -0.2043805569410324, -0.1566171795129776, 0.058619096875190735, -0.030091656371951103, 0.0058801365084946156, -0.08801557868719101, 0.002440175274387002, -0.050095852464437485, 0.10621318221092224, -0.03452710807323456, -0.04161352664232254, -0.10473458468914032, 0.13856592774391174, 0.0502522774040699, -0.21678638458251953, 0.0058434405364096165, 0.07020995020866394, -0.14673681557178497, -0.023735690861940384, -0.09149879217147827, 0.11832646280527115, -0.16736474633216858, 0.13213446736335754, 0.1113375797867775, -0.05825652927160263, 0.12988513708114624, 0.14374493062496185, -0.019201291725039482, 0.03814928978681564, -0.015407486818730831, 0.15345434844493866, -0.0018219040939584374, -0.20637831091880798, -0.044557586312294006, -0.01782252825796604, -0.14482225477695465, 0.12153396755456924, -0.16849492490291595, -0.030258093029260635, -0.11348319053649902, 0.007944774813950062, -0.003530956106260419, -0.010128314606845379, -0.027148358523845673, 0.018443778157234192, 0.04206650331616402, 0.05277976766228676, -0.09268462657928467, 0.0655226781964302, 0.10297304391860962, 0.05136773735284805, -0.13339975476264954, 0.10535017400979996, 0.0069406782276928425, -0.10550658404827118, 0.013749091885983944, 0.02638593502342701, -0.19107814133167267, 0.07897059619426727, 0.14863340556621552, -0.012446749955415726, -0.05531727895140648, -0.05390027165412903, 0.05356566607952118, -0.08800545334815979, -0.009426814503967762, 0.15475495159626007, -0.18511195480823517, 0.019906701520085335, -0.030843788757920265, 0.20706763863563538, 0.023248132318258286, -0.15779681503772736, 0.1424703150987625, 0.12522278726100922, -0.05251772701740265, -0.13798712193965912, 0.02355119027197361, 0.08671607077121735, -0.21529841423034668, -0.03987114503979683, -0.05111857131123543, 0.07067172974348068, 0.053229209035634995, 0.1879265457391739, -0.08709923177957535, 0.02976476028561592, -0.028955385088920593, 0.1045832708477974, 0.05848905071616173, -0.1592123955488205, 0.015501128509640694, -0.1364009827375412, 0.14183244109153748, -0.11907742917537689, 0.07199244946241379, 0.03991840407252312, -0.10936295241117477, 0.022754795849323273, 0.08953709900379181, 0.04178595542907715, 0.08158174157142639, -0.1849740892648697, 0.11324058473110199, 0.03197283297777176, 0.05444394424557686, 0.16263000667095184, 0.1225903183221817, -0.1737556904554367, 0.032184455543756485, 0.025270286947488785, -0.011500108987092972, 0.04932107776403427, -0.0706682950258255, -0.11728087067604065, 0.08850660920143127, 0.012907207943499088, 0.08521535247564316, -0.05688033998012543, -0.05153152719140053, -0.006076166406273842, -0.11580616235733032, 0.009164320304989815, 0.15708334743976593, -0.014919273555278778, -0.04909833148121834, 0.1285461187362671, -0.11870449036359787, 0.07948124408721924, -0.04714623838663101, -0.15556789934635162, -0.08743595331907272, 0.07736822962760925, -0.024180065840482712, 0.08059103786945343, -0.1487254798412323, 0.08554445952177048, 0.02336086705327034, -0.022668862715363503, 0.12568552792072296, 0.015460114926099777, 0.062489621341228485, -0.049637287855148315, -0.11297030746936798, 0.023840870708227158, 0.0313192680478096, -0.08432717621326447, 0.07016240805387497, -0.058661092072725296, 0.009349723346531391, -0.06686718016862869, -0.06526463478803635, -0.038868121802806854, 0.0632932260632515, -0.052424509078264236, 0.01301513984799385, 0.02363983914256096, 0.1296260803937912, -0.21545906364917755, -0.009477132000029087, -0.010951082222163677, -0.16047969460487366, 0.06642904132604599, -0.07111692428588867, 0.0037296880036592484, -0.1470358967781067, 0.026287168264389038, 0.09664800763130188, -0.14181412756443024, -0.0436943918466568, 0.07405298948287964, -0.11426746100187302, -0.0258555319160223, -0.10203351080417633, 0.011906622909009457, -0.1834983080625534, -0.15844371914863586, -0.10097803175449371, -0.08436120301485062, -0.07434592396020889, -0.042117584496736526, -0.15071429312229156, -0.009024027734994888, -0.10895071178674698, 0.019579032436013222, 0.007360096555203199, 0.0028410102240741253, -0.026347002014517784, 0.07399918884038925, -0.012367472052574158, 0.09000840783119202, -0.011295505799353123, 0.07373703271150589, 0.0048156012780964375, 0.048649732023477554, 0.017556970939040184, 0.004275537561625242, -0.0011934651993215084, 0.023622268810868263, -0.041846901178359985, 0.08743606507778168, -0.12187165766954422, 0.13401034474372864, -0.13097207248210907, 0.09705746918916702, -0.1317046582698822, -0.1489909142255783, 0.03190235793590546, 0.013334753923118114, -0.15909817814826965, -0.019229425117373466, 0.0336933471262455, 0.03679736703634262, 0.013483081012964249, -0.04316115006804466, 0.0229902733117342, -0.08862600475549698, 0.1754508763551712, 0.061182986944913864, -0.06263388693332672, -0.08023589104413986, -0.05761533975601196, -0.014061839319765568, -0.1362745314836502, 0.0231919027864933, 0.05997179076075554, -0.0032054795883595943, -0.13971565663814545, -0.00219592172652483, -0.06745932996273041, 0.012825344689190388, -0.07042621821165085, -0.06659548729658127, -0.11480250954627991, 0.11875054240226746, -0.11778182536363602, 0.13075381517410278, -0.2638876140117645, -0.01124411541968584, -0.05772129446268082, -0.1659485548734665, 0.15796130895614624, 0.15319761633872986, -0.23447610437870026, 0.07479456067085266, 0.014539136551320553, 0.1794181764125824, 0.010965617373585701, 0.08708751946687698, -0.10603190958499908, 0.17640872299671173, -0.07642892748117447, 0.2083652764558792, -0.09320265799760818, 0.05903734639286995, 0.0531788133084774, 0.1383924037218094, -0.16669464111328125, 0.02976728230714798, -0.09291163086891174, -0.06461361795663834, 0.02183864451944828, 0.007074912544339895, -0.04352965205907822, -0.0963081419467926, 0.04717515408992767, 0.08259142190217972, -0.25174325704574585, -0.04719961807131767, -0.0770629271864891, -0.09368164092302322, 0.12590163946151733, -0.0189372468739748, -0.09822829067707062, 0.1704111546278, -0.03656035661697388, 0.0031596978660672903, -0.0674021914601326, -0.06354232132434845, 0.18982632458209991, -0.15896500647068024, 0.020235948264598846, 0.20996764302253723, -0.13972659409046173, 0.1347188651561737, -0.028475694358348846, 0.0208808071911335, 0.02057325281202793, -0.06943690776824951, -0.010525751858949661, -0.01178684737533331, 0.12490684539079666, 0.0539921410381794, -0.13874365389347076, 0.04866459220647812, -0.011450137011706829, 0.101565420627594, -0.23548860847949982, 0.03007032908499241, -0.14536653459072113, 0.060803595930337906, -0.11886768788099289, -0.005484000314027071, -0.12499711662530899, 0.01942591927945614, 0.038705021142959595, 0.03363656625151634, -0.02157266065478325, 0.13259631395339966, 0.06392426788806915, 0.004842828959226608, -0.047205567359924316, 0.08844287693500519, 0.008787804283201694, -0.035607099533081055, 0.03438428416848183, 0.01939442940056324, -0.15672269463539124, 0.017811590805649757, 0.132605642080307, -0.062050629407167435, 0.02686910331249237, -0.019062798470258713, 0.03261386975646019, -0.0290717501193285, 0.18901781737804413, -0.0031746223103255033, 0.015685496851801872, 0.027492398396134377, -0.11928263306617737, 0.07729694992303848, 0.06708120554685593, 0.07533367723226547, 0.01563536562025547, -0.16508811712265015, -0.017922457307577133, 0.04453662410378456, 0.11708695441484451, 0.12921442091464996, -0.03240884840488434, -0.12555907666683197, 0.1698428839445114, -0.014428447000682354, -0.16904298961162567, 0.15773256123065948, 0.10503997653722763, -0.11466483771800995, 0.022229252383112907, -0.0037188176065683365, -0.008075635880231857, -0.03069966286420822, -0.07571712136268616, 0.1663709431886673, -0.16296784579753876, -0.03137265518307686, 0.09183826297521591, 0.12878425419330597, 0.10947239398956299, -0.009926320984959602, 0.12820249795913696, -0.029422568157315254, -0.1617898941040039, -0.14886847138404846, 0.022346612066030502, 0.14439335465431213, -0.09150690585374832, -0.02060732990503311, 0.002784725045785308, 0.11359953880310059, 0.098410464823246, -0.19670076668262482, -0.15194278955459595, 0.07115013897418976, 0.11534279584884644, -0.04503598064184189, -0.05091344937682152, 0.037075795233249664, -0.1415310502052307, -0.011255773715674877, -0.049370210617780685, 0.0415177047252655, -0.14851704239845276, 0.09373083710670471, -0.008159094490110874, -0.13649822771549225, 0.023018764331936836, 0.14578953385353088, -0.05090857297182083, 0.06710948795080185, -0.10147807747125626, 0.1484384536743164, -0.17441336810588837, 0.026932287961244583, -0.0680663213133812, -0.012637115083634853, -0.02748703584074974, 0.10908321291208267, -0.02207878604531288, -0.03822028636932373, -0.07286090403795242, 0.1580376774072647, -0.11530513316392899, 0.08901365101337433, 0.007362842094153166, -0.07110058516263962, 0.10019847750663757, 0.1680787354707718, 0.0748862773180008, -0.1064523383975029, 0.20196539163589478, 0.004452527966350317, -0.14348937571048737, 0.168665811419487, 0.08299744129180908, -0.03636811301112175, 0.23830123245716095, -0.01386652048677206, -0.03534569963812828, 0.16644395887851715, 0.16474805772304535, 0.230868861079216, 0.021386971697211266, -0.1490829586982727, 0.18848776817321777, -0.19636020064353943, 0.016608815640211105, -0.012204937636852264, -0.14700913429260254, 0.05783458426594734, -0.08200723677873611, 0.13411401212215424, 0.09847267717123032, -0.10916993767023087, 0.15802906453609467, 0.12017826735973358, -0.021053006872534752, -0.10555284470319748, -0.10160845518112183, 0.2049635797739029, -0.02389887347817421, 0.06052232161164284, -0.14064015448093414, 0.061771210283041, 0.028115421533584595, 0.09372065216302872, -0.013498536311089993, 0.06730932742357254, 0.14108382165431976, 0.06782860308885574, -0.06253337115049362, -0.0008227329235523939, -0.004043097607791424, 0.048022232949733734, 0.028483711183071136, -0.032600030303001404, -0.09241250157356262, -0.06775995343923569, 0.0022961420472711325, 0.0108492998406291, 0.044988274574279785, 0.032734911888837814, -0.03145970404148102, 0.008305283263325691, -0.015468459576368332, 0.005000217817723751, 0.03079870156943798, 0.03321349620819092, 0.11411266773939133, 0.06453488767147064, 0.04749361425638199, 0.007307472638785839, -0.13339799642562866, -0.1735764741897583, 0.04101327434182167, -0.032959215342998505, -0.042198874056339264, -0.07133528590202332, 0.004070180002599955, -0.1314416378736496, -0.00724459532648325, 0.12410290539264679, 0.0009808136383071542, -0.06607427448034286, -0.069478839635849, -0.13654829561710358, -0.010430362075567245, 0.1185002252459526, -0.09147553145885468, -0.08083147555589676, -0.027359778061509132, -0.05709974840283394, -0.12863421440124512, -0.18148919939994812, 0.1185101717710495, -0.04339776188135147, -0.055594272911548615, 0.013235045596957207, -0.09093166142702103, -0.05763380602002144, 0.07976160943508148, -0.059417739510536194, 0.033874694257974625, -0.043208394199609756, -0.13409124314785004, 0.11984270811080933, 0.04723731800913811, 0.09379201382398605, -0.08753285557031631, 0.10564302653074265, -0.09969988465309143, -0.06696862727403641, 0.01794966496527195, -0.06221143528819084, 0.08861269056797028, -0.10670807957649231, -0.003168979659676552, -0.07209054380655289, -0.06882679462432861, 0.0015080717857927084, -0.11324161291122437, 0.03519105538725853, 0.1922704130411148, 0.1867222636938095, -0.24466033279895782, -0.1315767467021942, -0.060789648443460464, 0.3182952404022217, -0.0236500296741724, -0.13910788297653198, 0.1035010814666748, -0.2272493690252304, -0.12629985809326172, 0.3092863857746124, 0.15343859791755676, 0.1769341081380844, -0.1287124902009964, 0.11362794041633606, 0.005596614442765713, 0.28534066677093506, 0.22836098074913025, 0.13024970889091492, -0.26875433325767517, 0.05675457417964935, -0.024298226460814476, 0.1015365794301033, 0.06332909315824509, 0.10634279251098633, -0.22014744579792023, -0.1468815803527832, -0.010713009163737297, -0.042164549231529236, -0.01578528806567192, 0.09311901777982712, 0.021857405081391335, -0.04070378467440605, -0.17344503104686737, 0.24279144406318665, -0.1767939031124115, -0.12795445322990417, 0.1802830994129181, -0.16327035427093506, -0.004617444705218077, 0.1881568729877472, 0.024919945746660233, -0.0680677518248558, -0.19477221369743347, 0.0492660328745842, -0.035439252853393555, -0.2328389436006546, 0.020672881975769997, 0.05388481542468071, -0.2056790441274643, -0.13884927332401276, -0.1349318027496338, 0.28722304105758667, -0.053269147872924805, -0.09815874695777893, 0.16271664202213287, 0.12576700747013092, 0.21152566373348236, -0.10140015184879303, 0.10794012993574142, 0.0685805231332779, -0.24582014977931976, -0.01570883020758629, -0.08216772973537445, 0.3192357122898102, 0.1326146125793457, 0.06585685908794403, -0.2721967399120331, -0.11206765472888947, -0.09949903190135956, 0.02940046600997448, 0.03207442909479141, 0.11977987736463547, -0.14591334760189056, 0.0026029266882687807, 0.09380509704351425, 0.03990626707673073, 0.05556386336684227, -0.006642044056206942, -0.025864318013191223, -0.09783166646957397, 0.03994225710630417, 0.01986304111778736, 0.05547429993748665, 0.11534964293241501, -0.03413695842027664, 0.08655594289302826, 0.10757806152105331, 0.14564582705497742, -0.06006007269024849, -0.07956045120954514, -0.1611338108778, -0.006911747623234987, 0.007257519755512476, -0.021058768033981323, -0.07739491760730743, 0.09891388565301895, -0.1461256891489029, -0.12790890038013458, -0.2160724699497223, -0.08248541504144669, 0.0048905592411756516, -0.16887454688549042, 0.005997526925057173, 0.04805314540863037, -0.07042329758405685, 0.012132401578128338, -0.07142598927021027, 0.042585112154483795, -0.013016587123274803, -0.021046029403805733, 0.04508014768362045, 0.06336706131696701, -0.0460454598069191, -0.11816497147083282, -0.10205170512199402, 0.07786816358566284, -0.0037397323176264763, -0.16542498767375946, 0.08414049446582794, 0.08446353673934937, -0.0850084125995636, 0.016426656395196915, 0.036236729472875595, 0.016703885048627853, -0.04136618971824646, 0.11209871619939804, 0.06904055178165436, -0.04271479696035385, 0.04972877725958824, -0.006605179980397224, 0.0002630624221637845, -0.05230079963803291, 0.035417817533016205, 0.028642598539590836, -0.019999640062451363, 0.08762167394161224, 0.02527802437543869, 0.03615428879857063, -0.05808618664741516, -0.03684648871421814, 0.13491804897785187, 0.051932405680418015, -0.011787345632910728, -0.26600509881973267, 0.0880366712808609, -0.06738872826099396, 0.2666587233543396, 0.012981888838112354, 0.011237580329179764, 0.13383783400058746, -0.05451742187142372, 0.01203823834657669, 0.11100785434246063, -0.15052789449691772, 0.10237281769514084, -0.11982893943786621, 0.13872121274471283, 0.03137413039803505, 0.14158368110656738, 0.018130026757717133, 0.05168323218822479, -0.25566908717155457, 0.037501443177461624, 0.10257516801357269, 0.04975989833474159, -0.08923119306564331, -0.099877268075943, -0.1264813244342804, 0.10647482424974442, 0.04953719675540924, 0.029158007353544235, 0.017678478732705116, -0.03178229182958603, 0.09455885738134384, -0.11369002610445023, 0.12308557331562042, 0.2289690375328064, -0.104880690574646, 0.06351714581251144, 0.18160659074783325, -0.13067002594470978, 0.05279989540576935, 0.23021268844604492, -0.1548244208097458, -0.07337915897369385, -0.06140710413455963, 0.09987682849168777, -0.0030774185433983803, -0.2723493278026581, 0.12017665803432465, -0.0018192040733993053, -0.32720184326171875, -0.01936657540500164, 0.0493803396821022, 0.2979300916194916, -0.09290707856416702, 0.06514215469360352, 0.136134073138237, 0.04392867907881737, 0.06943189352750778, -0.14312466979026794, 0.035124681890010834, 0.015219567343592644, -0.29686272144317627, 0.05166018381714821, 0.03476736694574356, 0.18107236921787262, 0.031823933124542236, -0.07004909962415695, -0.3312954008579254, -0.002236773958429694, -0.1313191056251526, 0.12911003828048706, -0.08077824860811234, -0.19770589470863342, -0.18959008157253265, 0.048309121280908585, 0.06282133609056473, 0.24714098870754242, -0.20948444306850433, 0.17415475845336914, 0.26608192920684814, -0.12521950900554657, 0.15821164846420288, 0.10187595337629318, -0.044966910034418106, 0.015034270472824574, -0.13365808129310608, 0.2505461871623993, -0.09268037974834442, 0.09662077575922012, 0.009049073792994022, -0.22357742488384247, -0.12523648142814636, 0.07905281335115433, -0.025189537554979324, -0.07832202315330505, -0.022222893312573433, -0.12561580538749695, -0.16718992590904236, 0.10824297368526459, 0.10126727819442749, 0.06740481406450272, -0.08496038615703583, -0.05681613087654114, 0.14606645703315735, -0.025079630315303802, 0.22244574129581451, 0.22921986877918243, -0.02677958272397518, 0.024177037179470062, 0.2757284939289093, -0.17975103855133057, 0.07062181085348129, 0.16590549051761627, -0.16116252541542053, 0.030791569501161575, 0.07178513705730438, 0.02326977625489235, -0.07023908197879791, -0.2654883563518524, 0.14620676636695862, -0.019590606912970543, -0.09870632737874985, 0.22927983105182648, 0.18184752762317657, 0.16974136233329773, -0.09583937376737595, 0.05379810556769371, 0.2655446529388428, -0.07788468897342682, -0.1361122876405716, -0.05277255177497864, -0.016963595524430275, -0.12580329179763794, -0.21443325281143188, 0.09245500713586807, 0.10543697327375412, 0.10505959391593933, -0.25881704688072205, -0.18002808094024658, -0.20452231168746948, 0.21328800916671753, 0.10768422484397888, -0.010499963536858559, -0.0002191640523960814, -0.03704873099923134, -0.40674257278442383, 0.004246126394718885, -0.23929256200790405, 0.16916680335998535, -0.32054615020751953, -0.029181642457842827, 0.13104507327079773, -0.0002265726070618257, -0.00010069419658975676, 0.01247805543243885, 0.00029123612330295146, 0.016482282429933548, -0.010317092761397362, -0.06856273859739304, 0.0023320105392485857, -0.0005122050060890615, -0.23415018618106842, -0.0023198574781417847, -0.06968353688716888, 0.32138359546661377, -0.5451828241348267, -0.2730964720249176, 0.2526471018791199, 0.8513875007629395, 0.9935953617095947, 0.08899693936109543, -0.009641104377806187, -0.46803489327430725, 0.5146072506904602, -0.5800317525863647, -0.13762789964675903, -0.7469738125801086, -0.9191719889640808, 0.4564322233200073, 0.10951240360736847, 0.7357357144355774, 0.7450414896011353, 0.6199288368225098, 0.2817428410053253, -0.22175224125385284, 0.33569204807281494, 0.43068134784698486, 0.38447675108909607, 0.08131492137908936, -0.09158053249120712, -0.11798076331615448, -0.051308609545230865, 0.113250732421875, -0.14271791279315948, 0.05997723340988159, -0.23082220554351807, -0.08446914702653885, -0.2250656932592392, 0.057549718767404556, -0.27491915225982666, -0.001195367774926126, -0.032106105238199234, 0.09833775460720062, 0.022069767117500305, -0.01989397034049034, 0.33862996101379395, -0.07152634114027023, 0.026222407817840576, -0.006028161384165287, 0.07286077737808228, 0.016046058386564255, -0.29749318957328796, -0.11564271152019501, -0.3517392873764038, -0.0676107332110405, 0.19698168337345123, 0.3460119664669037, -0.10590384900569916, 0.2603423297405243, -0.3040864169597626, -0.44962790608406067, -0.21741901338100433, -0.16771821677684784, 0.06643744558095932, 0.010280240327119827, 0.08538143336772919, 0.4590386748313904, -0.28073495626449585, 0.2673299014568329, 0.046260710805654526, -0.010460895486176014, 0.13688018918037415, 0.012634439393877983, -0.24232931435108185, -0.008929412811994553, -0.03251519799232483, 0.12706820666790009, 0.23722201585769653, -0.026827702298760414, 0.04627728462219238, -0.15238305926322937, 0.08131075650453568, 0.09413990378379822, 0.2563260495662689, 0.18714822828769684, 0.2959977686405182, 0.0032676043920218945, 0.0033920411951839924, -0.00205871369689703, 0.0024338646326214075, 0.11533252894878387, 0.06417771428823471, 0.1636843979358673, -0.1557752937078476, -0.10752800107002258, -0.007806180976331234, 0.0032804273068904877, 0.11709452420473099, 0.009518750943243504, 0.18664099276065826, -0.12670311331748962, 0.005288050044327974, -0.001885776873677969, -0.0010294344974681735, -0.2879584729671478, -0.11235448718070984, -0.05831662937998772, 0.02925705723464489, 0.06869684904813766, 0.19033817946910858, 0.0399530865252018, -0.21253031492233276, 0.003740159096196294, 0.003918773028999567, 0.0437120646238327, -0.08052736520767212, -0.21897438168525696, -0.22144873440265656, -0.37768086791038513, 0.0894181951880455, -0.012819224037230015, 0.41042500734329224, -0.08637838810682297, -0.24706032872200012, -0.20577391982078552, -0.10379021614789963, -0.1016443595290184, 0.2763196527957916, 0.07459580898284912, 0.20209740102291107, 0.20916876196861267, -0.13127954304218292, 0.1688459813594818, 0.06630758196115494, -0.004800070077180862, 0.045677654445171356, 0.0013062208890914917, 0.17742642760276794, 0.23271319270133972, -0.26238521933555603, -0.17063163220882416, 0.07465312629938126, -0.12190090119838715, 0.37427929043769836, -0.0014150870265439153, 0.008523466996848583, 0.12168709188699722, 0.05897681787610054, 0.09587470442056656, -0.16910237073898315, 0.003965938463807106, -0.022130226716399193, 0.28969934582710266, 0.2123083621263504, 0.02864088863134384, 0.0867810994386673, 0.03234965354204178, 0.10413763672113419, -0.1334317922592163, -0.18684691190719604, -0.020963730290532112, -0.008532405830919743, -0.09389986097812653, 0.20308686792850494, 0.12132171541452408, 0.13515515625476837, 0.3269234895706177, -0.0883607566356659, -0.000454350229119882, -0.18751783668994904, -0.027016635984182358, -0.1353914737701416, -0.1535334587097168, 0.08735857903957367, 0.09603226184844971, 0.0389302633702755, 0.03693491220474243, 0.1277206838130951, -0.07485271990299225, -0.1421201229095459, 0.1689184159040451, 0.11154723912477493, -0.05350501462817192, 0.12478556483983994, 0.030928174033761024, 0.055243272334337234, 0.3629147410392761, -0.4617391526699066, 0.19966447353363037, -0.04055462032556534, -0.08883222192525864, 0.06392158567905426, -0.02918989211320877, -0.2149481475353241, -0.16401851177215576, -0.11333584785461426, 0.02367543987929821, -0.25185152888298035, 0.024899529293179512, -0.10456834733486176, 0.014353089034557343, 0.12676237523555756, -0.07856616377830505, 0.09035836905241013, -0.07647304236888885, 0.1906103789806366, 0.1506785899400711, -0.06388738751411438, 0.006651774048805237, -0.09665030241012573, -0.07271207869052887, 0.05662081763148308, 0.03856009989976883, 0.12280852347612381, -0.01754041202366352, -0.08369710296392441, 0.005078375339508057, 0.04011744633316994, 0.06063590571284294, -0.2901461720466614, -0.2035965919494629, 0.15111911296844482, -0.11588700860738754, -0.265470027923584, 0.09175706654787064, -0.07649114727973938, -0.011510348878800869, 0.032753076404333115, 0.19037891924381256, 0.20442955195903778, 0.11629759520292282, 0.0482742115855217, -0.0035572233609855175, -0.17083686590194702, -0.15879876911640167, 0.37379783391952515, -0.10679212212562561, -0.05507546290755272, 0.4355471134185791, -0.17518363893032074, -0.004338591359555721, -0.2510800361633301, 0.011695971712470055, 0.10041780769824982, 0.1692211776971817, -0.005450753029435873, 0.0032546587754040956, 0.09873269498348236, -0.10419954359531403, -0.3020615577697754, 0.13886459171772003, -0.12944915890693665, -0.34933775663375854, -0.07595854252576828, -0.05238964408636093, 0.19183099269866943, 0.004213893786072731, 0.08444555848836899, 0.2388179749250412, -0.07813705503940582, 0.13758516311645508, -0.012108899652957916, 0.03298270329833031, 0.03948871046304703, -0.01746286265552044, 0.062294043600559235, -0.03155193105340004, 0.2195071578025818, 0.09351182729005814, -0.15417104959487915, -0.05695187300443649, 0.054682157933712006, 0.2960953116416931, 0.15880577266216278, 0.08080581575632095, 0.16067126393318176, -0.2810541093349457, -0.07964213192462921, -0.11057298630475998, -0.16038139164447784, 0.022138891741633415, 0.012200345285236835, 0.11760491132736206, -0.0873708575963974, 0.05976775288581848, 0.22460995614528656, 0.262620210647583, 0.04886962100863457, -0.01654771715402603, 0.14421027898788452, -0.0257309228181839, -0.07893210649490356, -0.03893866017460823, -0.027935940772294998, -0.0124579556286335, -0.036131102591753006, 0.03887162357568741, -0.0931447222828865, -0.0366719625890255, 0.09125316143035889, 0.14930947124958038, -0.07910329848527908, -0.039663515985012054, 0.09660229086875916, -0.011409291997551918, 0.03585443273186684, -0.2703229486942291, 0.20868712663650513, -0.008045490831136703, 0.07224007695913315, 0.08646613359451294, -0.08247876167297363, 0.015712933614850044, -0.019407831132411957, 0.052750617265701294, -0.1946619153022766, 0.1612854152917862, -0.03213922306895256, -0.10474271327257156, -0.18307951092720032, -0.26098912954330444, 0.08995358645915985, -0.16728170216083527, 0.03163261339068413, -0.16806331276893616, 0.13279958069324493, 0.2141643762588501, -0.19368457794189453, 0.024561963975429535, -0.09496903419494629, -0.02893082983791828, -0.05335462465882301, -0.11493337899446487, 0.09685967117547989, -0.016982320696115494, -0.11481083929538727, 0.0022651487961411476, 0.2507145404815674, 0.004837155807763338, 0.04099661856889725, -0.11824414134025574, 0.09287714958190918, 0.05564047768712044, 0.005127078853547573, -0.11576519906520844, -0.22638583183288574, -0.03360768035054207, 0.16437815129756927, 0.04384457319974899, 0.07276472449302673, 0.005660131108015776, -0.07165542244911194, -0.016032349318265915, 0.00685270456597209, -0.15723003447055817, 0.10033741593360901, 0.0721360519528389, 0.09262627363204956, -0.15560926496982574, -0.11559826880693436, 0.02530783601105213, -0.2820702791213989, 0.10953513532876968, -0.0882231816649437, 0.15019604563713074, 0.018588975071907043, -0.20805013179779053, -0.031249217689037323, 0.19631755352020264, -0.17294509708881378, 0.13329899311065674, -0.17151233553886414, -0.24552735686302185, -0.13649219274520874, -0.21158546209335327, -0.09948049485683441, -0.008995529264211655, -0.012297517620027065, 0.07989191263914108, -0.05098266154527664, 0.23823750019073486, 0.2828807234764099, 0.0826040580868721, -0.00146132439840585, 0.0029917422216385603, 0.2958475351333618, -0.09536434710025787, -0.22449226677417755, -0.21174344420433044, 0.169338658452034, 0.08630654960870743, -0.06762534379959106, 0.06830863654613495, -0.36564528942108154, -0.18330560624599457, 0.11485198885202408, -0.20901821553707123, -0.08513287454843521, 0.0677170604467392, -0.3144605755805969, 0.012883680872619152, -0.05268930271267891, -0.13275986909866333, 0.16459251940250397, 0.09073670953512192, 0.2145657241344452, -0.0003568523679859936, -0.16521990299224854, -0.000784306728746742, 0.2024669498205185, -0.012868763878941536, 0.10174722224473953, -0.28908225893974304, -0.18226812779903412, 0.18138763308525085, -0.15831255912780762, 0.05804026126861572, 0.0003773626231122762, -0.279367059469223, -0.18108610808849335, 0.18928201496601105, -0.2541062533855438, 0.12653301656246185, -0.04247649386525154, -0.0010439580073580146, -0.11214736104011536, -0.19727787375450134, 0.12603646516799927, -0.08126948028802872, 0.16444504261016846, -0.25222718715667725, -0.12824095785617828, 0.003456851001828909, -0.09489613026380539, -0.017006345093250275, -0.3878927230834961, 0.03833088278770447, -0.17832843959331512, -0.04827244207262993, 0.05666172131896019, -0.07774283736944199, 0.15932892262935638, -0.011481023393571377, 0.24294637143611908, 0.18973229825496674, 0.24840304255485535, -0.05967831239104271, -0.1389438807964325, -0.010011909529566765, 0.07747363299131393, -0.0014969718176871538, -0.026116058230400085, -0.09064184129238129, 0.023696739226579666, -0.18530872464179993, 0.028560403734445572, 0.0011056537041440606, 0.16432900726795197, -0.08100281655788422, -0.15635283291339874, -0.09634289890527725, 0.031192557886242867, -0.12261555343866348, 0.14724215865135193, 0.15126211941242218, 0.15302370488643646, 0.16494442522525787, 0.13884377479553223, 0.058239229023456573, -0.057219497859478, -0.29180943965911865, -0.12501206994056702, 0.02691267989575863, 0.11113301664590836, 0.37849512696266174, -0.2951158881187439, 0.24533981084823608, -0.015182018280029297, -0.13415899872779846, 0.20218166708946228, -0.01976296491920948, 0.13714630901813507, -0.08475864678621292, -0.0612722784280777, -0.062223535031080246, 0.24693194031715393, 0.09369705617427826, -0.11330282688140869, 0.17961284518241882, 0.2538134455680847, -0.35231512784957886, 0.22172795236110687, 0.8310604691505432, 0.23430579900741577, -0.37588611245155334, 0.24928055703639984, -0.039564989507198334, -0.09707891196012497, -0.5310893654823303, 0.58185875415802, 0.004575439728796482, -0.06760919094085693, 0.5518907308578491, -0.21315348148345947, 0.0161612406373024, -0.3978930413722992, -0.019833240658044815, 0.30441001057624817, 0.32208317518234253, 0.152781680226326, -0.13989736139774323, -0.04644915461540222, -0.00732123339548707, 0.023534197360277176, -0.06579291820526123, -0.35810813307762146, -0.15043677389621735, -0.2556825578212738, -0.1235930472612381, 0.166645348072052, -0.005833890289068222, -0.024144070222973824, -0.053796928375959396, 0.0716990977525711, -0.004087862558662891, 0.021338028833270073, 0.224769726395607, 0.0008626228664070368, -0.0027804530691355467, -0.1823391318321228, -0.07955662161111832, 0.0809539332985878, 0.3177092373371124, -0.20224201679229736, -0.01770147681236267, 0.03426312282681465, -0.10283578187227249, 0.1238604485988617, -0.035530366003513336, 0.02372054196894169, 0.07954185456037521, -0.30701664090156555, 0.20992648601531982, 0.06070251017808914, 0.026909705251455307, -0.007073746062815189, 0.046573296189308167, -0.0054759434424340725, -0.10418319702148438, -0.06866365671157837, 0.1889093965291977, 0.07713162899017334, -0.004316819366067648, -0.11595190316438675, 0.08136673271656036, -0.0006171207642182708, 0.16672363877296448, 0.1928824931383133, 0.08608178794384003, -0.05780443176627159, -0.2941828966140747, -0.3139086663722992, -0.18214504420757294, -0.0188748799264431, 0.12849463522434235, -0.06543164700269699, 0.298079252243042, 0.02199658751487732, -0.0046705398708581924, -0.07626905292272568, -0.18984384834766388, 0.0783466100692749, -0.005179641302675009, -0.16282248497009277, -0.01451736781746149, -0.16139304637908936, 0.008698472753167152, 0.12928849458694458, -0.007312343455851078, 0.11358312517404556, 0.11236210912466049, 0.11927739530801773, -0.02394481748342514, -0.1272655427455902, -0.10777662694454193, 0.04493093863129616, -0.21949408948421478, 0.029315277934074402, 0.1682269424200058, -0.15030895173549652, 0.1404002606868744, 0.17314191162586212, -0.014021464623510838, -0.06005295738577843, -0.17571355402469635, 0.1313292533159256, 0.018818680197000504, 0.1199585571885109, -0.1900169849395752, -0.22673329710960388, 0.024116169661283493, 0.1662178635597229, 0.008795168250799179, -0.1327124536037445, 0.10715406388044357, -0.0678880512714386, -0.14184904098510742, 0.11303876340389252, 0.038553427904844284, 0.013865413144230843, 0.09524005651473999, -0.06772525608539581, 0.04503590986132622, -0.07702294737100601, -0.019837521016597748, -0.011258378624916077, -0.12384453415870667, 0.1773984730243683, 0.21394875645637512, 0.06085718795657158, 0.07917967438697815, -0.18215155601501465, 0.18375077843666077, 0.07734481990337372, -0.20367375016212463, 0.31689104437828064, -0.04701024666428566, -0.17120414972305298, -0.13615800440311432, 0.3701170086860657, -0.3053780794143677, -0.08814872056245804, 0.0667351484298706, -0.0683310404419899, 0.08148548752069473, 0.2911597788333893, -0.03423313423991203, -0.14576038718223572, 0.22370696067810059, -0.20318321883678436, 0.046129755675792694, 0.4153037667274475, -0.2219671607017517, 0.110793337225914, 0.03875858336687088, -0.20281155407428741, 0.004085124004632235, -0.00500346627086401, -0.30536264181137085, -0.03700767084956169, 0.018958257511258125, -0.2840729057788849, -0.020726433023810387, -0.25922179222106934, 0.2617722749710083, 0.01878572627902031, -0.24124357104301453, 0.1673470139503479, 0.019870631396770477, 0.20022085309028625, -0.1594616323709488, -0.06172112375497818, -0.11729685217142105, 0.22919675707817078, 0.12317842990159988, 0.3342483937740326, -0.028548497706651688, -0.08632321655750275, -0.05643600970506668, 0.1649322658777237, 0.0458870530128479, 0.3806169033050537, -0.11089209467172623, -0.1710572987794876, 0.12691330909729004, 0.05004808306694031, -0.1160026490688324, -0.2820396423339844, -0.1305597722530365, 0.3859962522983551, 0.21489568054676056, -0.17240308225154877, -0.07817108184099197, 0.405560165643692, -0.2514885663986206, -0.22125615179538727, -0.3660901188850403, 0.2659095525741577, 0.027669578790664673, -0.17163683474063873, 0.1384851187467575, 0.1569695621728897, -0.36502209305763245, 0.17968477308750153, 0.19273005425930023, -0.10953600704669952, 0.21114705502986908, -0.027649879455566406, 0.07836395502090454, -0.05887094512581825, 0.039431825280189514, -0.22145508229732513, 0.06124170497059822, 0.16937090456485748, 0.10056862980127335, -0.1624656319618225, -0.12700344622135162, -0.2847020626068115, 0.45583200454711914, 0.06202405318617821, -0.35973548889160156, 0.23743703961372375, -0.07965675741434097, -0.2280878871679306, 0.503875195980072, 0.04909311234951019, 0.09226298332214355, -0.01731232926249504, 0.010615343227982521, 0.35866302251815796, 0.22551237046718597, 0.19350868463516235, 0.1321180760860443, -0.0683460533618927, -0.0835830345749855, 0.5053837299346924, -0.10387463122606277, 0.12667284905910492, 0.011994182132184505, -0.0730043351650238, 0.03944731131196022, -0.16670498251914978, 0.030151814222335815, -0.2103186845779419, 0.038064904510974884, -0.08647248148918152, 0.10180845856666565, -0.3462895452976227, 0.29372766613960266, -0.05724962428212166, 0.40147048234939575, 0.5969502925872803, 0.49825191497802734, -0.06645406782627106, 0.23003354668617249, 0.34479695558547974, -0.6195108294487, -0.046125028282403946, -0.09691359847784042, 0.4402686357498169, -0.023975880816578865, 0.020141104236245155, 0.004485894925892353, 0.1758350282907486, -0.09919457882642746, -0.25904199481010437, 0.024469519034028053, -0.20098860561847687, 0.1742536574602127, -0.38584721088409424, -0.15434527397155762, 0.3625560700893402, 0.18246856331825256, 0.4532615542411804, 0.12620745599269867, -0.24989540874958038, 0.07914485037326813, -0.10689397156238556, -0.13805480301380157, -0.11711764335632324, -0.537097692489624, -0.6441396474838257, -0.43764862418174744, -0.1500551402568817, 0.002062686486169696, 0.10917884111404419, 0.10292595624923706, 0.06744778901338577, -0.027185769751667976, -0.09267229586839676, -0.028566328808665276, -0.16538472473621368, -0.22263944149017334, -0.0819690153002739, 0.10715124756097794, -0.12030266225337982, 0.048827219754457474, 0.18437635898590088, 0.06473951786756516, 0.005700927693396807, -0.1597244292497635, 0.19312982261180878, -0.2264801561832428, -0.1285238265991211, 0.10384969413280487, -0.06334733217954636, -0.08186105638742447, 0.0671733021736145, -0.04388239234685898, -0.10694841295480728, -0.009485333226621151, 0.07096730917692184, 0.12318471819162369, 0.10852392017841339, 0.07911305874586105, -0.1775343418121338, 0.00858021154999733, -0.02358067035675049, 0.10115642100572586, -0.27391770482063293, 0.004932813346385956, 0.044900137931108475, -0.12331206351518631, -0.12441379576921463, 0.11978813260793686, 0.23975718021392822, 0.2283233255147934, -0.04821474850177765, 0.1661454141139984, 0.26436567306518555, 0.44826793670654297, -0.44567587971687317, -0.7414507269859314, -0.11880037188529968, 0.1430319994688034, 0.1163816899061203, -0.04251899942755699, 0.07350891083478928, 0.05165600776672363, 0.052773818373680115, 0.003516966477036476, 0.11064889281988144, -0.15949513018131256, -0.06134754791855812, -0.011684693396091461, 0.05194493755698204, -0.0023555620573461056, 0.01199374906718731, -0.1806471049785614, -0.09707756340503693, 0.03395792469382286, 0.03523370996117592, 0.13299472630023956, 0.0016665776493027806, 0.09808092564344406, 0.09621618688106537, -0.19553464651107788, 0.13239392638206482, 0.032157398760318756, -0.20237116515636444, 0.0007581638637930155, -0.12017510086297989, -0.03027869388461113, -0.19728700816631317, 0.009142479859292507, 0.31939172744750977, 0.08260668069124222, -0.05271133780479431, -0.1117912083864212, 0.32002559304237366, -0.05688579007983208, -0.2223542034626007, 0.05720413103699684, -0.2736852765083313, -0.1633935123682022, 0.1662003993988037, 0.17126664519309998, -0.030490417033433914, 0.017141835764050484, -0.19972319900989532, -0.03497539833188057, -0.07160861790180206, -0.003844807157292962, 0.15452854335308075, 0.031995464116334915, 0.012783560901880264, -0.1077360287308693, 0.08567441999912262, -0.021181490272283554, 0.2205595225095749, 0.20154137909412384, 0.07367713004350662, -0.02174290642142296, 0.04087250307202339, -0.08211366832256317, 0.06493258476257324, -0.10266055166721344, -0.015096745453774929, -0.18000632524490356, -0.19718700647354126, 0.3444440960884094, 0.3326765298843384, -0.013566232286393642, 0.08223908394575119, 0.11665473133325577, 0.2463630735874176, 0.010258286260068417, -0.06268660724163055, 0.08181807398796082, 0.010826586745679379, -0.15970955789089203, 0.09360499680042267, -0.20654283463954926, -0.2624359726905823, -0.04354586452245712, 0.04055036976933479, 0.05602389946579933, -0.035372305661439896, 0.23857997357845306, -0.13120704889297485, 0.046276554465293884, -0.003963291645050049, 0.2813550531864166, -0.13740994036197662, 0.2921714782714844, -0.043550290167331696, 0.1296248435974121, -0.14600540697574615, -0.47876015305519104, 0.5432626605033875, -0.15497440099716187, -0.4069823622703552, 0.41150960326194763, 0.13463044166564941, 0.33788031339645386, -0.09306637197732925, -0.016989968717098236, 0.2949344515800476, -0.05192386731505394, -0.12264107167720795, -0.0424371063709259, 0.30581778287887573, 0.06760420650243759, -0.2469654530286789, -0.07468153536319733, -0.13318023085594177, -0.24005159735679626, 0.056304946541786194, 0.24774423241615295, -0.2061646729707718, -0.21208177506923676, -0.05471479520201683, 0.2917330861091614, -0.19314609467983246, -0.2993219494819641, 0.03812601417303085, -0.0018813428469002247, 0.15067417919635773, -0.22803355753421783, -0.09987592697143555, 0.07029701769351959, 0.1351408064365387, 0.07534705847501755, 0.016986006870865822, 0.23706577718257904, -0.09879003465175629, -0.26079222559928894, 0.05934799090027809, 0.041538968682289124, -0.2573319375514984, -0.5592016577720642, 0.4112248122692108, 0.0316501222550869, 0.1855536699295044, -0.20239773392677307, 0.3038488030433655, -0.018365344032645226, 0.2768908143043518, 0.29087746143341064, -0.0747532993555069, -0.21061266958713531, 0.13773992657661438, -0.18412503600120544, -0.01079678162932396, 0.1911739706993103, 0.15832121670246124, -0.1064259484410286, -0.18557436764240265, 0.08612395823001862, 0.11553819477558136, 0.042917173355817795, -0.1255788654088974, 0.11033906787633896, -0.20902876555919647, 0.3519342541694641, -0.00859659444540739, 0.29983997344970703, -0.06691671162843704, 0.017156854271888733, 0.40567320585250854, -0.27308884263038635, -0.09228105843067169, 0.12879133224487305, -0.04774419218301773, 0.1314372569322586, -0.09262588620185852, 0.1936263144016266, -0.11496841162443161, -0.07832202315330505, 0.05844534933567047, -0.01366779487580061, -0.10411301255226135, 0.1970737874507904, 0.3174225986003876, 0.23930108547210693, 0.07608726620674133, 0.10126259177923203, -0.24020664393901825, -0.0966230258345604, 0.07493416965007782, 0.30788660049438477, -0.02358419820666313, 0.006521197501569986, -0.2861049473285675, -0.09639991819858551, 0.08683393150568008, -0.005033706780523062, -0.06600014120340347, 0.00931771844625473, 0.3572936952114105, 0.10521227866411209, -0.004169437102973461, -0.183206245303154, -0.04011057689785957, 0.13028913736343384, -0.14560873806476593, 0.2007390409708023, 0.05159894376993179, -0.3184930980205536, -0.10634337365627289, -0.23476368188858032, 0.3855706751346588, -0.036747097969055176, 0.1327684372663498, 0.053092941641807556, 0.10888125747442245, -0.2680773138999939, 0.16349253058433533, 0.06614022701978683, 0.09231369197368622, 0.16189025342464447, -0.03867729753255844, 0.0370289608836174, 0.1878383308649063, 0.17199397087097168, 0.012866714037954807, -0.2032613456249237, -0.010596640408039093, 0.05111822858452797, -0.24881763756275177, -0.08052690327167511, -0.07561331242322922, 0.006003356073051691, -0.09145703911781311, -0.12582089006900787, -0.19330112636089325, -0.0012795190559700131, -0.06511808931827545, 0.1681327074766159, 0.06558648496866226, 0.07358488440513611, 0.2526889741420746, 0.1083316057920456, -0.20513342320919037, 0.03363977372646332, -0.09176255017518997, -0.13793177902698517, 0.12096904218196869, -0.0010611123871058226, 0.1920340657234192, 0.054718077182769775, -0.04140312224626541, -0.01622133143246174, 0.03118533082306385, -0.005202675238251686, -0.24958501756191254, -0.0454387404024601, 0.04019197076559067, -0.014122549444437027, -0.1995149850845337, 0.03791787475347519, -0.14709410071372986, -0.10043393820524216, 0.07519492506980896, 0.11298615485429764, 0.010792667977511883, -0.06394601613283157, 0.3811853528022766, 0.2470371574163437, -0.014792509377002716, 0.0825103297829628, -0.17486554384231567, 0.0653032511472702, 0.03808366879820824, -0.016518427059054375, 0.02781946212053299, -0.1651255190372467, 0.10037463158369064, -0.010194978676736355, -0.014219899661839008, 0.09858697652816772, -0.11640685796737671, 0.07033953815698624, 0.12619614601135254, -0.108089879155159, -0.15983256697654724, 0.11747158318758011, -0.025253374129533768, -0.1737174540758133, -0.05646705627441406, 0.1108369529247284, -0.1651349812746048, -0.09350184351205826, 0.12890902161598206, 0.22615034878253937, -0.07176254689693451, 0.11492415517568588, 0.0387423001229763, -0.2518911063671112, -0.0546925887465477, 0.1645321547985077, 0.12555858492851257, 0.08834955841302872, 0.02682284079492092, -0.04075213521718979, -0.006565940100699663, -0.01901533268392086, 0.1911994367837906, -0.05690718814730644, 0.061757370829582214, -0.048506442457437515, 0.16651062667369843, 0.04846278205513954, 0.14787103235721588, -0.42636534571647644, -0.060303572565317154, 0.1003822311758995, -0.17772726714611053, 0.014507188461720943, 0.1169583797454834, 0.03622911125421524, -0.01763105019927025, 0.007899275049567223, 0.17662912607192993, 0.05667274072766304, 0.3133195638656616, 0.23399785161018372, -0.24411451816558838, -0.07072428613901138, 0.033604394644498825, -0.05555209890007973, 0.40295499563217163, 0.15279269218444824, -0.0248640775680542, -0.10598116368055344, 0.006053673103451729, 0.19670942425727844, -0.02793617732822895, 0.17045354843139648, -0.005271313712000847, -0.0626750960946083, 0.07084637880325317, 0.02088700607419014, -0.05541886016726494, -0.06916934251785278, 0.12397168576717377, -0.18908527493476868, -0.013720114715397358, -0.08287852257490158, 0.046915777027606964, 0.16184012591838837, -0.025663960725069046, 0.035316988825798035, -0.12582267820835114, -0.13566897809505463, 0.2679544985294342, -0.26872000098228455, -0.07981279492378235, -0.07925757765769958, -0.04460747167468071, -0.0663619115948677, -0.1363285332918167, -0.007001921068876982, 0.3954157531261444, 0.05082680657505989, 0.07420461624860764, 0.026676977053284645, 0.02750534936785698, -0.155256450176239, -0.04474785551428795, -0.16295936703681946, 0.027757052332162857, -0.20139451324939728, 0.06348631531000137, 0.018322544172406197, 0.06302308291196823, -0.0997069925069809, 0.08924256265163422, 0.2001878023147583, 0.11249176412820816, 0.105403833091259, -0.05777611583471298, -0.13108620047569275, 0.03684655576944351, 0.06518014520406723, 0.20500822365283966, 0.32251226902008057, 0.14418472349643707, 0.05349639430642128, 0.18236245214939117, -0.0004240874550305307, -0.1319810301065445, -0.23929452896118164, -0.1726481318473816, -0.08356926590204239, -0.15465949475765228, -0.0952710434794426, 0.05701038986444473, 0.10366726666688919, 0.19448012113571167, 0.13231348991394043, 0.07408206164836884, -0.024621574208140373, 0.17567461729049683, -0.006349179893732071, 0.18734611570835114, 0.08064769208431244, -0.08181316405534744, -0.1719270497560501, -0.007292256690561771, 0.05102655291557312, 0.2032194882631302, -0.01948472112417221, 0.06949199736118317, -0.12006619572639465, 0.12498828768730164, 0.06666561216115952, 0.11327149718999863, 0.013555733487010002, 0.1893286257982254, 0.20217715203762054, -0.07485277950763702, 0.029257994145154953, -0.07888033241033554, 0.007197021972388029, 0.1988595426082611, 0.030014190822839737, 0.06065196543931961, 0.3409385681152344, -0.03745119273662567, -0.10624762624502182, -0.0029837980400770903, -0.036424342542886734, 0.37679675221443176, 0.03606826812028885, 0.253507524728775, 0.09533052146434784, 0.009768076241016388, -0.10129033029079437, 0.06279022246599197, -0.012207006104290485, -0.028552014380693436, -0.06600507348775864, 0.029746627435088158, 0.1656292825937271, -0.12011513859033585, -0.03985140472650528, 0.1152813732624054, -0.04156189039349556, -0.019864941015839577, -0.02609243057668209, -0.09621593356132507, -0.031419165432453156, -0.06031564995646477, -0.013349203392863274, -0.03735709935426712, -0.007904129102826118, -0.15651389956474304, -0.21223235130310059, 0.10663419961929321, 0.06379711627960205, -0.061680588871240616, -0.11620108038187027, -0.0774678960442543, -0.06899064779281616, 0.12307968735694885, -0.07262501120567322, -0.008093705400824547, 0.27835333347320557, 0.10511121153831482, -0.3998788893222809, 0.2286216914653778, -0.09265193343162537, -0.142564058303833, 0.09302128106355667, 0.13624358177185059, -0.2009766548871994, -0.3404563367366791, 0.0018261040095239878, 0.05861501768231392, 0.19165395200252533, 0.08343684673309326, 0.08446852117776871, -0.47143104672431946, 0.04728695750236511, 0.18215733766555786, -0.14214706420898438, -0.05788375437259674, -0.1536707878112793, 0.03732914850115776, 0.0961369201540947, 0.0925242230296135, 0.029359985142946243, -0.14306584000587463, 0.06368909031152725, 0.2933419346809387, 0.04087885841727257, 0.05059342831373215, 0.1396951824426651, -0.11430061608552933, -0.032180964946746826, 0.05713781714439392, -0.0799066573381424, -0.014348828233778477, 0.3881467282772064, -0.19574618339538574, -0.11877378076314926, -0.2696911692619324, 0.053578443825244904, -0.09538871794939041, 0.14695729315280914, 0.03223991021513939, -0.14966981112957, 0.228012815117836, 0.03868342936038971, -0.20163799822330475, -0.4253351092338562, 0.14291030168533325, 0.16418421268463135, -0.14100073277950287, 0.14340797066688538, -0.014834847301244736, -0.1894456148147583, 0.10103010386228561, -1.8777191144181415e-05, -0.05657622590661049, 0.037435270845890045, 0.06521247327327728, 0.024765875190496445, 0.4019741117954254, -0.552063524723053, -0.0742245763540268, 0.08410152792930603, -0.0035550545435398817, 0.19655399024486542, 0.036647941917181015, -0.013272837735712528, 0.03592469170689583, -0.011996123939752579, -0.12181105464696884, -0.058895938098430634, 0.24060668051242828, -0.3722558617591858, 0.4694249629974365, 0.20415298640727997, -0.04014217108488083, 0.02962416410446167, -0.20615415275096893, -0.24907146394252777, 0.1583208441734314, 0.19804136455059052, -0.07007798552513123, -0.023363636806607246, -0.28661036491394043, 0.5109379291534424, -0.24047710001468658, 0.07987532019615173, 0.006191534921526909, -0.0654660016298294, 0.15158013999462128, -0.04497598111629486, -0.06466882675886154, -0.2323455810546875, 0.3041689097881317, -0.16449187695980072, 0.11455454677343369, 0.002983059734106064, -0.22066009044647217, -0.18835513293743134, 0.15455232560634613, -0.09329509735107422, 0.16590583324432373, -0.4308357238769531, 0.1249273344874382, 0.07381530851125717, 0.059288520365953445, -0.05795209854841232, -0.3835986256599426, 0.11415105313062668, -0.35279905796051025, 0.054161496460437775, -0.11467535048723221, -0.1312495619058609, 0.16093969345092773, -0.23857617378234863, 0.12898416817188263, -0.28770723938941956, 0.3830181956291199, -0.19439014792442322, -0.05660901218652725, 0.1521890014410019, -0.040886685252189636, -0.06381607055664062, 0.06664140522480011, 0.09971936792135239, -0.14047716557979584, 0.13168305158615112, -0.10872875899076462, -0.150559663772583, -0.02871113456785679, -0.15715046226978302, 0.3818187415599823, -0.007031608838587999, 0.3170759677886963, 0.008024603128433228, -0.19163908064365387, 0.15181507170200348, 0.137551948428154, 0.06683339923620224, -0.11543561518192291, 0.1276894509792328, 0.03856035694479942, -0.028150295838713646, -0.23763731122016907, -0.37286442518234253, 0.4578154683113098, -0.14119334518909454, -0.08992280066013336, 0.31174436211586, -0.3389725387096405, -0.6853784322738647, -0.0659017488360405, -0.08415307849645615, -0.18401162326335907, 0.21063664555549622, 0.012362002395093441, 0.26658180356025696, -0.1284666359424591, 0.06779851764440536, 0.050693757832050323, -0.18128453195095062, 0.06481875479221344, -0.1386907696723938, 0.1209423616528511, -0.09686797112226486, 0.14346037805080414, -0.1159180998802185, 0.21012911200523376, 0.15253505110740662, -0.04900667071342468, 0.037867411971092224, 0.18958058953285217, -0.18021561205387115, 0.10379859805107117, -0.37458327412605286, 0.10293909907341003, 0.27041101455688477, 0.2692621350288391, -0.2694579064846039, -0.017680924385786057, -0.07835197448730469, 0.3758816719055176, -0.003601348027586937, -0.11169540137052536, 0.056465741246938705, -0.013035447336733341, -0.038955748081207275, 0.3000895082950592, -0.16156917810440063, -0.002826196141541004, -0.20333068072795868, -0.052853018045425415, -0.008564640767872334, -0.06531074643135071, -0.03527693822979927, -0.10125023871660233, -0.04408863186836243, -0.02507646009325981, 0.16932560503482819, -0.1766212284564972, -0.06312456727027893, -0.21345137059688568, -0.06686902046203613, 0.1615399867296219, -0.49675485491752625, -0.12134487926959991, 0.05306582152843475, -0.38238558173179626, 0.02521466836333275, -0.09485676884651184, 0.30912962555885315, 0.08961109071969986, -0.2331409454345703, 0.12456587702035904, -0.021900005638599396, -0.01688610203564167, -0.06879719346761703, -0.32157009840011597, -0.13457803428173065, -0.09436444938182831, 0.1507880687713623, 0.391653448343277, 0.34227311611175537, 0.018757779151201248, -0.2792229950428009, 0.03802388533949852, 0.05781611427664757, 0.2717978358268738, 0.1129799410700798, 0.022014392539858818, 0.22867077589035034, -0.02219606190919876, -0.043313853442668915, -0.02719229832291603, -0.009149076417088509, -0.03158857673406601, 0.06448978930711746, -0.08922723680734634, 0.07370181381702423, -0.136525496840477, 0.12260208278894424, -0.058677516877651215, 0.012947293929755688, 0.060620710253715515, 0.026018541306257248, 0.08451993763446808, -0.5281819105148315, -0.009930637665092945, -0.11450409889221191, 0.04237009212374687, 0.029430780559778214, 0.45966118574142456, -0.015861285850405693, -0.1135530173778534, -0.294901043176651, -0.02651071734726429, 0.1274181753396988, -0.041013751178979874, -0.196304589509964, -0.010030628181993961, 0.20032651722431183, 0.24138987064361572, 0.07399919629096985, 0.21948648989200592, -0.095375195145607, -0.012117516249418259, 0.1694004237651825, -0.13835421204566956, -0.0802791565656662, 0.16280560195446014, 0.17959846556186676, -0.028538057580590248, -0.18177752196788788, 0.01520515512675047, -0.05987399071455002, 0.5058064460754395, 0.032546184957027435, 0.4583487808704376, -0.03459858149290085, -0.024256901815533638, 0.09882413595914841, -0.24419492483139038, -0.20507387816905975, -0.3910364806652069, 0.016662759706377983, 0.07241903245449066, 0.006273898296058178, -0.20309871435165405, -0.1039712131023407, 0.16524545848369598, 0.33057892322540283, 0.007576507516205311, 0.10340672731399536, -0.2549319565296173, -0.02859370969235897, 0.13367070257663727, 0.2564292252063751, -0.05804528295993805, -0.050898101180791855, -0.32255983352661133, -0.01474179420620203, -0.22996512055397034, -0.2864505648612976, -0.09852157533168793, -0.01348051242530346, 0.17380918562412262, -0.08411312103271484, 0.00027067065821029246, -0.1946280598640442, 0.18711945414543152, -0.058948855847120285, -0.09315001219511032, -0.13307538628578186, -0.11654979735612869, -0.09841189533472061, 0.07616213709115982, 0.13595588505268097, 0.027063656598329544, -0.07577775418758392, 0.2988685071468353, 0.06679068505764008, 0.07859369367361069, -0.09883175790309906, 0.29886600375175476, 0.301971435546875, 0.37917160987854004, 0.26844507455825806, 0.10163265466690063, 0.05214430391788483, -0.07903490960597992, -0.11539901793003082, -0.13850319385528564, -0.348197877407074, -0.021343933418393135, -0.11376909911632538, -0.031007785350084305, 0.08756051957607269, 0.08942565321922302, 0.2616093158721924, 0.23924197256565094, 0.1479598879814148, -0.29317766427993774, -0.11151134222745895, -0.06395291537046432, 0.249527707695961, 0.031614791601896286, 0.23545601963996887, -0.2768821716308594, -0.2915603220462799, -0.2949839234352112, -0.025056645274162292, -0.03560921549797058, -0.2547489404678345, 0.1701228767633438, 0.15677043795585632, 0.49849265813827515, -0.03547436371445656, -0.17825831472873688, 0.37781262397766113, 0.03605644777417183, -0.29119324684143066, 0.14149583876132965, -0.10895200073719025, 0.08880050480365753, 0.04631771892309189, 0.22308941185474396, -0.021107124164700508, -0.05601673200726509, -0.031231969594955444, -0.055554263293743134, 0.24920888245105743, 0.03162756934762001, 0.35531023144721985, -0.0010353222023695707, 0.04060867428779602, 0.11684618890285492, -0.23541364073753357, -0.11793339252471924, -0.16304971277713776, 0.14302967488765717, 0.041855085641145706, -0.12039148062467575, -0.09492337703704834, 0.036790888756513596, 0.008861478418111801, 0.2705199718475342, 0.017894146963953972, -0.08058355748653412, 0.07609495520591736, -0.017766553908586502, -0.21346242725849152, -0.4347437620162964, -0.02747277356684208, -0.029242470860481262, 0.0007025584927760065, -0.03084535337984562, -0.0197120551019907, 0.15609830617904663, -0.08587146550416946, -0.11513154953718185, 0.18700648844242096, 0.021060336381196976, -0.28304946422576904, 0.04645097628235817, 0.11625584959983826, 0.19158737361431122, 0.010997405275702477, -0.005964068230241537, 0.08052656799554825, -0.22111576795578003, -0.002747718244791031, 0.09432617574930191, -0.180617094039917, 0.03848683461546898, 0.019461339339613914, 0.0028166405390948057, -0.0876561775803566, -0.014930265955626965, 0.12454419583082199, -0.05312667042016983, 0.46958017349243164, 0.16143573820590973, -0.6091114282608032, 0.5073558688163757, 0.000743240350857377, 0.6094735264778137, -0.19610482454299927, -0.038044415414333344, 0.5876319408416748, -0.2953004240989685, -0.06646884977817535, 0.16611190140247345, 0.042081721127033234, -0.09913365542888641, -0.10598555952310562, -0.1476915180683136, 0.059076953679323196, -0.07769038528203964, -0.03683243319392204, 0.028607714921236038, -0.045556675642728806, -0.11365586519241333, -0.055347591638565063, -0.29611003398895264, -0.06166524440050125, -0.02145840786397457, -0.009315453469753265, 0.09102921932935715, -0.040591467171907425, -0.1067650243639946, -0.02749096229672432, 0.015678776428103447, -0.11796306818723679, -0.057492054998874664, -0.042259927839040756, 0.3660341799259186, -0.009020385332405567, 0.07635047286748886, 0.16103595495224, 0.14896956086158752, 0.04273092374205589, -0.05363902077078819, 0.5429733395576477, 0.09403056651353836, 0.36061641573905945, -0.20725278556346893, -0.04939030483365059, -0.031520646065473557, 0.004140014294534922, -0.05813645198941231, -0.06331660598516464, -0.12505213916301727, 0.08451484888792038, 0.3117545247077942, -0.13669128715991974, -0.07691823691129684, -0.10659340769052505, -0.11836209148168564, 0.06724002212285995, -0.23011942207813263, 0.23379243910312653, -0.0465894415974617, -0.4658576250076294, -0.09398087859153748, 0.16797347366809845, 0.02094121463596821, 0.03186004236340523, 0.0253886878490448, 0.02442261576652527, -0.09009142220020294, -0.046302687376737595, -0.13186529278755188, -0.020566385239362717, -0.0033171281684190035, 0.08824670314788818, 0.09824160486459732, 0.019843829795718193, -0.3781662583351135, -0.2084912657737732, -0.20752465724945068, -0.3993768095970154, -0.05666304752230644, -0.004348871763795614, 0.06767947226762772, 0.08213645219802856, 0.18152488768100739, 0.06970953196287155, -0.046011149883270264, -0.18587464094161987, 0.26790904998779297, 0.32541415095329285, 0.19515705108642578, 0.27432048320770264, -0.09015291184186935, -0.2131747007369995, 0.2164425104856491, -0.06762136518955231, -0.07198365032672882, -0.034228283911943436, -0.12148286402225494, 0.2298242300748825, 0.08347805589437485, -0.08672597259283066, -0.20394806563854218, -0.09685942530632019, 0.17761287093162537, -0.12082014232873917, -0.33245447278022766, -0.164864644408226, -0.19958241283893585, -0.1959436982870102, 0.049582887440919876, -0.04117737337946892, -0.10459157079458237, -0.24514874815940857, -0.09548506885766983, -0.12454695999622345, 0.05624552071094513, 0.19204246997833252, -0.21646030247211456, 0.14659734070301056, -0.04121215268969536, 0.2679803967475891, 0.11331038177013397, -0.07503378391265869, 0.03750563785433769, 0.010391615331172943, -0.17138096690177917, 0.1726047247648239, 0.044709499925374985, -0.1256255805492401, -0.030831053853034973, -0.05983996391296387, 0.043585218489170074, 0.3333887457847595, 0.049602534621953964, 0.31981217861175537, -0.06408586353063583, 0.18059834837913513, 0.08318677544593811, 0.181268110871315, 0.24666166305541992, 0.17361481487751007, 0.47252339124679565, -0.324627548456192, 0.26910942792892456, 0.24747440218925476, -0.2055121660232544, 0.17320680618286133, -0.042128659784793854, 0.02628730982542038, -0.003742397762835026, -0.09249721467494965, -0.06993617862462997, -0.151021808385849, 0.40974926948547363, -0.20716477930545807, 0.3796417713165283, -0.02786022424697876, -0.08756060898303986, 0.05017220228910446, 0.2354213297367096, 0.05289968103170395, 0.32340219616889954, -0.05918070673942566, -0.0014367495896294713, 0.03369603306055069, -0.3336314260959625, 0.281069278717041, -0.34453681111335754, -0.14547979831695557, 0.1807415932416916, -0.08611593395471573, -0.049602191895246506, -0.24431389570236206, 0.11696109175682068, -0.17238812148571014, 0.12608787417411804, -0.0560087114572525, -0.01495774183422327, 0.12572495639324188, -0.026098212227225304, 0.28480419516563416, 0.2238008677959442, 0.16100484132766724, 0.5367045998573303, -0.06595628708600998, 0.17934702336788177, -0.18692097067832947, 0.15970546007156372, -0.05402110144495964, -0.17698079347610474, 0.1518520712852478, 0.17848099768161774, 0.02169865556061268, 0.044058699160814285, 0.16871847212314606, 0.2177642434835434, -0.2165679633617401, 0.11439912021160126, -0.2523866593837738, -0.1137278750538826, -0.3749171197414398, 0.2191600799560547, 0.21739524602890015, 0.15119536221027374, 0.05239228159189224, 0.0069279479794204235, 0.07423967868089676, -0.06650277972221375, 0.008810671977698803, -0.07259979099035263, -0.35860931873321533, -0.2862359583377838, -0.006393952760845423, -0.1472087800502777, 0.16055120527744293, -0.2764825224876404, -0.03499899059534073, 0.16179518401622772, -0.5865907073020935, -0.17056670784950256, -0.26272231340408325, 0.6457791924476624, -0.061845168471336365, 0.029135704040527344, 0.7189474105834961, -0.4058549404144287, -0.03633525222539902, 0.20151938498020172, 0.23395071923732758, 0.1547442376613617, -0.33565133810043335, 0.12639175355434418, 0.3184948265552521, -0.15951977670192719, 0.18198765814304352, -0.05155881121754646, -0.23791658878326416, 0.3226422071456909, 0.13011379539966583, -0.33225831389427185, -0.15058983862400055, -0.1942419558763504, 0.02707785554230213, 0.11349611729383469, 0.20101647078990936, -0.13068005442619324, -0.05436381697654724, 0.1414286345243454, 0.11883819848299026, -0.07646005600690842, -0.11456888169050217, 0.6116674542427063, -0.0810619443655014, -0.100844606757164, 0.22408892214298248, -0.025717105716466904, 0.11576779186725616, 0.12331452965736389, -0.11921809613704681, -0.14749370515346527, 0.7806112766265869, -0.15990479290485382, 0.3031246066093445, -0.1980234980583191, 0.06855368614196777, 0.1593005508184433, -0.17752258479595184, 0.04070403426885605, 0.11416508257389069, 0.012063868343830109, 0.27194032073020935, 0.09545885771512985, -0.34871599078178406, -0.07486563920974731, -0.08790069073438644, 0.002840200439095497, 0.061956144869327545, 0.13285961747169495, -0.39742234349250793, -0.0665699765086174, -0.06395081430673599, 0.27375346422195435, 0.021329622715711594, 0.20420432090759277, -0.02449285425245762, -0.1347309947013855, 0.2024078369140625, 0.09986115992069244, 0.008346548303961754, -0.2035447210073471, 0.15376229584217072, 0.06124068796634674, 0.3318420648574829, -0.3025093972682953, -0.23751668632030487, 0.4309960603713989, -0.23433448374271393, 0.041415777057409286, 0.20985767245292664, -0.1924780160188675, 0.3316498398780823, -0.1306551992893219, -0.2800314426422119, 0.30716684460639954, 0.0029621501453220844, 0.04226318374276161, 0.31168514490127563, 0.06994342803955078, -0.3307449221611023, 0.08212867379188538, -0.19194146990776062, 0.16896511614322662, -0.1700572520494461, 0.0476105771958828, 0.3410579264163971, 0.11798366904258728, 0.09764345735311508, -0.24215731024742126, -0.13477490842342377, -0.16474050283432007, 0.030450327321887016, -0.21779091656208038, 0.4663834869861603, -0.05765518918633461, -0.1996159553527832, 0.10638277232646942, 0.12396743148565292, 0.014701343141496181, 0.33449262380599976, 0.14330613613128662, -0.3207036256790161, 0.40260910987854004, -0.00823600310832262, 0.027609307318925858, -0.3479037880897522, -0.005209683906286955, 0.1369263380765915, 0.015893645584583282, -0.17132620513439178, 0.08801014721393585, 0.2565300762653351, -0.27729323506355286, 0.08097159117460251, -0.36563077569007874, 0.18062996864318848, -0.38754987716674805, -0.11243244260549545, 0.20102450251579285, 0.2678484320640564, -0.4748513996601105, 0.20475193858146667, -0.27125686407089233, 0.030878767371177673, 0.2578374445438385, 0.19885309040546417, -0.1151348277926445, -0.07826849073171616, 0.3676775395870209, 0.34843865036964417, -0.11727157980203629, 0.1808428317308426, 0.18889261782169342, -0.2607036530971527, -0.3330700695514679, -0.34498706459999084, -0.07309141755104065, -0.017692336812615395, -0.1629558503627777, -0.00871563795953989, 0.05530104413628578, 0.10599192976951599, -0.3023981750011444, 0.07014966011047363, 0.21431566774845123, -0.11687883734703064, -0.19547609984874725, 0.11237668246030807, -0.22489435970783234, 0.028840450569987297, 0.04224211722612381, -0.042463693767786026, -0.21243010461330414, -0.16139379143714905, 0.13552100956439972, 0.06012517213821411, -0.007608835585415363, 0.07770612835884094, 0.04433184117078781, 0.1534624993801117, -0.08362989872694016, 0.05569114536046982, -0.15467624366283417, 0.12102902680635452, -0.1292535811662674, -0.42842257022857666, -0.17000272870063782, 0.12026021629571915, 0.02726791612803936, 0.27377763390541077, 0.38750553131103516, 0.4235318899154663, -0.032364536076784134, 0.13908737897872925, -0.0945345014333725, 0.577326238155365, 0.10384896397590637, 0.24718953669071198, -0.1790907084941864, 0.13347956538200378, 0.24335575103759766, 0.017011553049087524, -0.1025557667016983, 0.05237555503845215, -0.20040157437324524, -0.2690581977367401, -0.2207360565662384, -0.3300938010215759, 0.3053731620311737, 0.14297080039978027, 0.2979099154472351, 0.18602582812309265, 0.20800340175628662, 0.07733859121799469, -0.027030648663640022, -0.339846670627594, 0.02870091423392296, -0.0813191756606102, 0.043696533888578415, -0.015380657278001308, 8.074414836301003e-06, -0.20088888704776764, -0.10680307447910309, 0.047215044498443604, -0.1612289696931839, -0.11885642260313034, 0.22339361906051636, 0.3392097055912018, 0.10876604169607162, -0.12161985784769058, 0.11530876904726028, -0.051556240767240524, 0.13913892209529877, -0.03587650507688522, 0.1270899474620819, -0.008620514534413815, -0.03800174593925476, 0.08205167949199677, 0.3634386658668518, 0.027623262256383896, 0.4717525243759155, -0.029510583728551865, -0.02688419073820114, -0.07014651596546173, 0.17838487029075623, 0.30484524369239807, 0.10100527107715607, -0.01294098049402237, -0.020874349400401115, 0.0632752850651741, -0.07639003545045853, -0.07752514630556107, 0.10754106938838959, -0.10556580871343613, -0.1285306066274643, -0.16051135957241058, 0.020336704328656197, 0.1459336131811142, 0.21325212717056274, 0.05490291118621826, -0.02703774720430374, 0.15351974964141846, 0.2814188301563263, -0.10490104556083679, 0.02307317778468132, 0.0763409435749054, -0.10950746387243271, -0.31964343786239624, -0.33230897784233093, 0.21115601062774658, 0.12327432632446289, -0.004462727811187506, -0.0892341136932373, 0.0858684554696083, 0.09368526190519333, -0.11387825757265091, 0.041452500969171524, 0.23074877262115479, 0.02300724945962429, -0.035389721393585205, -0.04609214514493942, -0.06126432865858078, 0.10011805593967438, -0.17065292596817017, -0.010511135682463646, -0.08642245084047318, 0.014418249949812889, -0.09872623533010483, -0.06251315772533417, -0.06044836342334747, -0.19725997745990753, -0.05735468119382858, -0.010839111171662807, 0.03308139741420746, -0.13276179134845734, -0.07326574623584747, -0.19467121362686157, 0.03914325684309006, 0.09328331798315048, 0.11167572438716888, -0.04495900496840477, 0.12105023860931396, 0.30160555243492126, 0.09920522570610046, 0.09227028489112854, -0.041549202054739, 0.07034938037395477, 0.14181533455848694, -0.060957055538892746, 0.08896264433860779, 0.33092474937438965, -0.3940236568450928, 0.16157101094722748, 0.08495499193668365, -0.16412173211574554, -0.0015251239528879523, 0.03513609990477562, 0.058728571981191635, 0.1312756985425949, -0.035047873854637146, 0.20851874351501465, -0.01972256228327751, -0.003537209704518318, -0.05237893387675285, 0.13661649823188782, -0.11057112365961075, 0.06214754655957222, -0.08382821828126907, -0.13053026795387268, 0.18007314205169678, -0.08513223379850388, -0.0707155391573906, 0.1649121195077896, -0.05121328681707382, 0.05407186597585678, 0.0893290713429451, -0.07098613679409027, -0.030890140682458878, 0.30043596029281616, -0.15068542957305908, -0.34896811842918396, -0.06108575314283371, 0.3902224004268646, -0.05332113057374954, -0.06800518929958344, 0.16225609183311462, 0.07619951665401459, -0.16115698218345642, -0.10103535652160645, -0.03590261936187744, -0.29512837529182434, 0.09616349637508392, 0.015842244029045105, 0.007438449654728174, 0.040521301329135895, -0.05291200429201126, -0.25144967436790466, 0.003070453880354762, 0.007900051772594452, 0.0900844857096672, -0.054362811148166656, 0.03994212672114372, -0.026843586936593056, -0.024171657860279083, -0.03500845283269882, 0.15248297154903412, -0.14418084919452667, -0.17708207666873932, 0.3671850562095642, 0.0927622839808464, 0.42431777715682983, -0.23260316252708435, -0.022492285817861557, 0.43193310499191284, -0.4415818750858307, -0.1705140471458435, 0.016515400260686874, -0.023732349276542664, 0.17921502888202667, 0.10065491497516632, 0.0603160560131073, -0.05353183299303055, -0.04515772685408592, -0.04702412709593773, 0.2675510346889496, 0.11333923786878586, -0.1563277542591095, 0.0600464902818203, -0.09825734794139862, 0.21244490146636963, -0.06193980202078819, 0.008881747722625732, 0.25771695375442505, 0.09514083713293076, 0.18257606029510498, -0.014193356037139893, -0.08797524869441986, -0.12478180974721909, 0.03210340440273285, -0.25584760308265686, 0.3724740147590637, -0.14018230140209198, -0.02792162448167801, -0.1521150767803192, -0.01796027272939682, -0.13578444719314575, 0.08371230214834213, 0.34684690833091736, 0.10994357615709305, 0.2597929537296295, -0.21103498339653015, -0.021234625950455666, 0.1574951708316803, 0.3398597836494446, 0.1964113712310791, 0.18190008401870728, -0.25518307089805603, -0.07646875083446503, -0.03971996530890465, -0.2950001358985901, -0.11684713512659073, -0.08426649868488312, 0.3323799669742584, 0.19392403960227966, -0.27624794840812683, 0.24158337712287903, -0.09890882670879364, -0.22018949687480927, 0.37081843614578247, 0.2969942092895508, -0.10999441146850586, 0.14082027971744537, 0.017069999128580093, 0.11707641184329987, -0.06404760479927063, 0.1906694918870926, 0.01264549046754837, 0.24515923857688904, -0.12229759991168976, -0.0013287048786878586, -0.0310042817145586, -0.18390195071697235, 0.22477266192436218, 0.013501782901585102, -0.04374591261148453, 0.1512339860200882, 0.008186182007193565, 0.009617616422474384, -0.006212874781340361, 0.16755573451519012, 0.08182672411203384, -0.0651315376162529, -0.05913117527961731, 0.25100481510162354, -0.05984777212142944, -0.016527539119124413, 0.46430230140686035, -0.07783913612365723, -0.03438223898410797, 0.04424222558736801, -0.22086533904075623, 0.04276664927601814, -0.018219705671072006, 0.5745031237602234, -0.6876261234283447, 0.0011041813995689154, 0.8032553791999817, 0.07280293852090836, -1.1681811809539795, 0.41748282313346863, -0.3697795271873474, 0.020291747525334358, 0.6993924975395203, 0.03711339458823204, -0.5893409848213196, -0.5691096186637878, -0.14967885613441467, -0.20899413526058197, -0.6941574215888977, -1.093916654586792, 0.7868743538856506, 0.44560083746910095, 0.34868043661117554, 0.0411478690803051, -0.014062691479921341, 0.16197286546230316, 0.3269404172897339, 0.12398537248373032, -0.04557431861758232, 0.18998704850673676, -0.03708640858530998, 0.05432708561420441, 0.06480742990970612, 0.03756219521164894, 0.11944007873535156, 0.029325028881430626, 0.27834808826446533, -0.08788063377141953, 0.009407212026417255, -0.05374741181731224, 0.004506763070821762, 0.08979235589504242, -0.0014226356288418174, -0.0385621041059494, -0.11674733459949493, -0.006646103225648403, -0.12513208389282227, 0.08601737022399902, -0.010036652907729149, 0.07150889188051224, -0.1295139044523239, 0.2618546485900879, 0.008313989266753197, 0.030822008848190308, -0.02794533781707287, -0.07262523472309113, 0.5009516477584839, 0.30170130729675293, -0.2536570429801941, 0.14823685586452484, -0.06913084536790848, 0.10452580451965332, 0.38014715909957886, -0.04968967288732529, -0.10620299726724625, 0.2684263288974762, -0.04711110144853592, 0.14240849018096924, -0.09475253522396088, -0.15417255461215973, 0.26361584663391113, -0.15920723974704742, -0.02519795298576355, 0.29820016026496887, 0.13473673164844513, 0.21040205657482147, -0.0258785393089056, -0.030032537877559662, -0.1292145550251007, 0.034200750291347504, 0.10412434488534927, -0.07403843849897385, -0.032583270221948624, 0.18189820647239685, -0.16704873740673065, 0.08072759956121445, -0.07204300910234451, -0.16483289003372192, -0.04400650039315224, 0.17255014181137085, 0.04549791291356087, 0.1884274035692215, -0.14405690133571625, 0.07258442789316177, 0.03489373251795769, -0.0009273237665183842, 0.09008461236953735, 0.09026898443698883, 0.05871214345097542, -0.3490438759326935, -0.13529932498931885, -0.12320686876773834, -0.23155885934829712, -0.07867532968521118, 0.0019852565601468086, -0.09001344442367554, -0.10894583910703659, 0.09243065118789673, -0.17134535312652588, 0.04466746374964714, -0.10275862365961075, 0.08621595054864883, -0.1643654853105545, 0.018463745713233948, -0.08246750384569168, -0.120808444917202, 0.19776365160942078, 0.08551543951034546, -0.05470024421811104, 0.0774158462882042, -0.14451076090335846, -0.033899854868650436, -0.2614741325378418, -0.009860493242740631, -0.2721869945526123, -0.09601180255413055, 0.2782401144504547, -0.1981242448091507, -0.07567328214645386, 0.1761893332004547, -0.011872400529682636, -0.12137638032436371, 0.12653952836990356, -0.16127021610736847, -0.11379405856132507, 0.05173986777663231, -0.24418838322162628, 0.05971100926399231, 0.17647936940193176, -0.12507207691669464, -0.051968421787023544, -0.05779115855693817, -0.09107784181833267, -0.011847277171909809, -0.12528134882450104, 0.09849455952644348, 0.24622827768325806, -0.10450902581214905, 0.06375925242900848, -0.1023307517170906, 0.11125273257493973, 0.07807761430740356, -0.03688361868262291, -0.2745307981967926, 0.042734064161777496, -0.1311742067337036, 0.15063345432281494, -0.32314983010292053, -0.30873265862464905, 0.3492816984653473, -0.0683189257979393, -0.11974562704563141, 0.20583544671535492, 0.18193964660167694, 0.1047888696193695, 0.005016356240957975, -0.3381955325603485, 0.11193237453699112, 0.08818060904741287, -0.03413308411836624, -0.018356258049607277, -0.028207525610923767, 0.022417208179831505, 0.3376447856426239, 0.0038213911466300488, -0.03778950124979019, 0.03919410705566406, -0.004240814130753279, -0.0004172594053670764, 0.15880656242370605, -0.02945900335907936, 0.010717753320932388, 0.13668961822986603, 0.09119710326194763, -0.3499607741832733, 0.0749499499797821, -0.1855182945728302, -0.31783998012542725, -0.14586837589740753, -0.013293067924678326, 0.016109704971313477, -0.017290450632572174, -0.08100482076406479, -0.06961609423160553, 0.013699303381145, -0.0595727302134037, -0.01797526888549328, -0.03214201331138611, -0.018671033903956413, 0.08943405002355576, 0.010806427337229252, 0.016555653885006905, 0.03502535820007324, 0.03277244418859482, -0.04769331216812134, 0.04296698421239853, -0.015234035439789295, -0.10101430118083954, 0.014403927139937878, -0.032088495790958405, 0.03987371176481247, -0.011259912513196468, 0.030503327026963234, -0.04367230832576752, 0.04452451318502426, -0.028897931799292564, 0.07742685079574585, -0.01783369667828083, -0.0319252572953701, -0.07989171892404556, 0.14029911160469055, -0.1814061999320984, -0.19353018701076508, -0.09143973886966705, -0.24695023894309998, 0.019642423838377, 0.2516106069087982, -0.35997045040130615, -0.016372883692383766, 0.15406034886837006, -0.1784428209066391, 0.009653996676206589, 0.18804514408111572, -0.14573845267295837, -0.01676996797323227, -0.10884993523359299, 0.13376547396183014, -0.05797810107469559, -0.29130786657333374, -0.015516982413828373, -0.23270322382450104, 0.08305578678846359, 0.16303454339504242, 0.07652832567691803, -0.20497670769691467, -0.1712404191493988, -0.10145337879657745, -0.004157752264291048, 0.14643529057502747, -0.2402593195438385, 0.010964840650558472, 0.003406338393688202, 0.039523497223854065, 0.22974556684494019, -0.049546461552381516, -0.19745869934558868, -0.2004850208759308, -0.13958294689655304, 0.17550939321517944, 0.024759991094470024, -0.265637069940567, -0.362581729888916, -0.2625705599784851, 0.10217856615781784, 0.3186042606830597, 0.15894706547260284, 0.2307191640138626, -0.1370871216058731, 0.04007505625486374, -0.22895285487174988, -0.3576267957687378, -0.12480800598859787, -0.0688905194401741, 0.03115229867398739, -0.22357431054115295, 0.060354702174663544, -0.07962674647569656, 0.1367465704679489, 0.3068729043006897, 0.29047998785972595, 0.2473495602607727, 0.09111946076154709, -0.19156302511692047, -0.0369316004216671, 0.02279193140566349, 0.1348380744457245, 0.32006970047950745, 0.039357565343379974, 0.021680699661374092, 0.06368906795978546, 0.02309204638004303, 0.024492865428328514, -0.04284457862377167, 0.028176698833703995, 0.04829993098974228, 0.16847285628318787, -0.11417899280786514, 0.055979710072278976, -0.07188134640455246, -0.0779416561126709, -0.060228779911994934, 0.05353720113635063, 0.15486709773540497, 0.1333097368478775, 0.05290333926677704, 0.03495790436863899, -0.026193605735898018, 0.018244273960590363, 0.1895178258419037, 0.2939821481704712, 0.12274791300296783, 0.020194390788674355, -0.12164676189422607, 0.1747039556503296, 0.11880969256162643, -0.20315028727054596, 0.011627953499555588, 0.0935329869389534, -0.05469408631324768, -0.08065914362668991, -0.09492635726928711, -0.32698485255241394, 0.0870029404759407, -0.06640694290399551, 0.09255427867174149, -0.12038359045982361, 0.038083165884017944, -0.032674066722393036, 0.15124011039733887, -0.05466914549469948, -0.03538957238197327, -0.09832961857318878, 0.057161495089530945, 0.12804578244686127, -0.05257648974657059, -0.029789187014102936, 0.02049425058066845, -0.18633611500263214, 0.07617208361625671, -0.05633898079395294, 0.1139867901802063, 0.18397070467472076, 0.16025348007678986, 0.22980399429798126, 0.0006000042194500566, -0.02783208154141903, 0.18084876239299774, -0.03827944025397301, 0.02072380669414997, 0.06634630262851715, 0.08575378358364105, 0.06056351214647293, -0.14671359956264496, -0.14475777745246887, 0.1835601031780243, 0.04871171712875366, -0.01567467302083969, 0.13666187226772308, 0.006147431675344706, 0.08499234914779663, -0.026694511994719505, -0.17695286870002747, 0.3066982626914978, 0.08044486492872238, -0.11613380908966064, 0.09849226474761963, -0.16960394382476807, 0.08392807841300964, 0.0074417428113520145, -0.07272323220968246, 0.018463147804141045, 0.20003165304660797, 0.17010460793972015, 0.08140027523040771, 0.1479455530643463, -0.015065100975334644, 0.03198841214179993, 0.0999491736292839, -0.3795435130596161, -0.2582090497016907, -0.3269716799259186, 0.08138876408338547, 0.12218872457742691, 0.05639147758483887, -0.018687203526496887, -0.1619027853012085, -0.18722057342529297, -0.36666640639305115, -0.03814885765314102, -0.1532549262046814, 0.06107265129685402, 0.14638623595237732, -0.09477499127388, -0.09420301020145416, -0.041300732642412186, -0.053714338690042496, 0.07844148576259613, 0.05012398585677147, 0.06533398479223251, -0.019744547083973885, -0.089429572224617, -0.08274951577186584, 0.009974541142582893, -0.19886431097984314, -0.16484083235263824, -0.14855244755744934, -0.1223459541797638, -0.23316609859466553, -0.11949268728494644, 0.014136900193989277, 0.18443742394447327, 0.06437710672616959, -0.22943784296512604, -0.13230526447296143, -0.04392913356423378, 0.13912750780582428, -0.0006333841593004763, -0.04668823629617691, -0.03751087561249733, 0.034072887152433395, 0.025788724422454834, -0.15185429155826569, -0.10951222479343414, 0.07384534925222397, -0.011683197692036629, -0.046824004501104355, 0.1567462533712387, -0.06545445322990417, 0.30487626791000366, -0.03841586410999298, 0.05834875628352165, -0.09887677431106567, -0.1331116259098053, -0.03644738718867302, 0.0015022583538666368, 0.12411218881607056, -0.2206088900566101, 0.12835614383220673, 0.0019198402296751738, -0.11615098267793655, -0.004614150617271662, -0.06422393769025803, -0.03981243818998337, -0.044934630393981934, -0.035473134368658066, -0.0407538115978241, -0.0978788211941719, -0.18884572386741638, 0.027052033692598343, -0.16870032250881195, -0.13539522886276245, -0.1490262895822525, 0.007929526269435883, 0.05575695261359215, -0.05447058007121086, 0.0223530400544405, 